{"learner":{"attributes":{"best_iteration":"192","best_score":"1.695394167148926","scikit_learn":"{\"_estimator_type\": \"regressor\"}"},"feature_names":["return_1d","momentum_5d","momentum_10d","momentum_20d","volatility_10d","high_low_range","day_of_week","rsi_14"],"feature_types":["float","float","float","float","float","float","int","float"],"gradient_booster":{"model":{"cats":{"enc":[],"feature_segments":[],"sorted_idx":[]},"gbtree_model_param":{"num_parallel_tree":"1","num_trees":"213"},"iteration_indptr":[0,1,2,3,4,5,6,7,8,9,10,11,12,13,14,15,16,17,18,19,20,21,22,23,24,25,26,27,28,29,30,31,32,33,34,35,36,37,38,39,40,41,42,43,44,45,46,47,48,49,50,51,52,53,54,55,56,57,58,59,60,61,62,63,64,65,66,67,68,69,70,71,72,73,74,75,76,77,78,79,80,81,82,83,84,85,86,87,88,89,90,91,92,93,94,95,96,97,98,99,100,101,102,103,104,105,106,107,108,109,110,111,112,113,114,115,116,117,118,119,120,121,122,123,124,125,126,127,128,129,130,131,132,133,134,135,136,137,138,139,140,141,142,143,144,145,146,147,148,149,150,151,152,153,154,155,156,157,158,159,160,161,162,163,164,165,166,167,168,169,170,171,172,173,174,175,176,177,178,179,180,181,182,183,184,185,186,187,188,189,190,191,192,193,194,195,196,197,198,199,200,201,202,203,204,205,206,207,208,209,210,211,212,213],"tree_info":[0,0,0,0,0,0,0,0,0,0,0,0,0,0,0,0,0,0,0,0,0,0,0,0,0,0,0,0,0,0,0,0,0,0,0,0,0,0,0,0,0,0,0,0,0,0,0,0,0,0,0,0,0,0,0,0,0,0,0,0,0,0,0,0,0,0,0,0,0,0,0,0,0,0,0,0,0,0,0,0,0,0,0,0,0,0,0,0,0,0,0,0,0,0,0,0,0,0,0,0,0,0,0,0,0,0,0,0,0,0,0,0,0,0,0,0,0,0,0,0,0,0,0,0,0,0,0,0,0,0,0,0,0,0,0,0,0,0,0,0,0,0,0,0,0,0,0,0,0,0,0,0,0,0,0,0,0,0,0,0,0,0,0,0,0,0,0,0,0,0,0,0,0,0,0,0,0,0,0,0,0,0,0,0,0,0,0,0,0,0,0,0,0,0,0,0,0,0,0,0,0,0,0,0,0,0,0,0,0,0,0,0,0],"trees":[{"base_weights":[6.328281E-2,1.09784E-2,2.3379743E-2,-1.5862822E-3,2.5774597E-3],"categories":[],"categories_nodes":[],"categories_segments":[],"categories_sizes":[],"default_left":[0,0,0,0,0],"id":0,"left_children":[1,3,-1,-1,-1],"loss_changes":[8.4613434E1,3.0479858E1,0E0,0E0,0E0],"parents":[2147483647,0,0,1,1],"right_children":[2,4,-1,-1,-1],"split_conditions":[5.8672833E0,1.495937E0,2.3379743E-2,-1.5862822E-3,2.5774597E-3],"split_indices":[5,4,0,0,0],"split_type":[0,0,0,0,0],"sum_hessian":[7.27E2,7.16E2,1.1E1,4.23E2,2.93E2],"tree_param":{"num_deleted":"0","num_feature":"8","num_nodes":"5","size_leaf_vector":"1"}},{"base_weights":[-2.5961574E-2,7.8100823E-3,-4.884663E-2,6.060235E-4,-1.5007382E-3],"categories":[],"categories_nodes":[],"categories_segments":[],"categories_sizes":[],"default_left":[0,0,0,0,0],"id":1,"left_children":[1,-1,3,-1,-1],"loss_changes":[1.2792156E1,0E0,7.9790287E0,0E0,0E0],"parents":[2147483647,0,0,2,2],"right_children":[2,-1,4,-1,-1],"split_conditions":[-7.100804E0,7.8100823E-3,1.5918857E0,6.060235E-4,-1.5007382E-3],"split_indices":[1,0,3,0,0],"split_type":[0,0,0,0,0],"sum_hessian":[7.17E2,1.4E1,7.03E2,3.34E2,3.69E2],"tree_param":{"num_deleted":"0","num_feature":"8","num_nodes":"5","size_leaf_vector":"1"}},{"base_weights":[8.10821E-3,-1.7919336E-2,1.24744745E-2,-9.884085E-3,6.734519E-5],"categories":[],"categories_nodes":[],"categories_segments":[],"categories_sizes":[],"default_left":[0,0,0,0,0],"id":2,"left_children":[1,3,-1,-1,-1],"loss_changes":[2.5082417E1,1.836152E1,0E0,0E0,0E0],"parents":[2147483647,0,0,1,1],"right_children":[2,4,-1,-1,-1],"split_conditions":[5.8672833E0,-3.5922651E0,1.24744745E-2,-9.884085E-3,6.734519E-5],"split_indices":[5,0,0,0,0],"split_type":[0,0,0,0,0],"sum_hessian":[7.31E2,7.2E2,1.1E1,1.4E1,7.06E2],"tree_param":{"num_deleted":"0","num_feature":"8","num_nodes":"5","size_leaf_vector":"1"}},{"base_weights":[-4.416847E-3,-9.4443746E-2,2.3750806E-1,-2.3736175E-4,-3.875938E-3,4.0797326E-3,-4.746111E-3],"categories":[],"categories_nodes":[],"categories_segments":[],"categories_sizes":[],"default_left":[0,0,0,0,0,0,0],"id":3,"left_children":[1,3,5,-1,-1,-1,-1],"loss_changes":[1.6238565E1,1.0963758E1,2.5301207E1,0E0,0E0,0E0,0E0],"parents":[2147483647,0,0,1,1,2,2],"right_children":[2,4,6,-1,-1,-1,-1],"split_conditions":[2.3892748E0,1.9790072E0,6.973421E1,-2.3736175E-4,-3.875938E-3,4.0797326E-3,-4.746111E-3],"split_indices":[5,5,7,0,0,0,0],"split_type":[0,0,0,0,0,0,0],"sum_hessian":[7.42E2,5.46E2,1.96E2,4.47E2,9.9E1,1.61E2,3.5E1],"tree_param":{"num_deleted":"0","num_feature":"8","num_nodes":"7","size_leaf_vector":"1"}},{"base_weights":[-4.1566044E-2,3.686789E-1,-9.2110045E-2,7.161048E-3,4.1634007E-4,-5.1754545E-3,-2.8633722E-4],"categories":[],"categories_nodes":[],"categories_segments":[],"categories_sizes":[],"default_left":[0,0,0,0,0,0,0],"id":4,"left_children":[1,3,5,-1,-1,-1,-1],"loss_changes":[1.523744E1,8.183098E0,1.73381E1,0E0,0E0,0E0,0E0],"parents":[2147483647,0,0,1,1,2,2],"right_children":[2,4,6,-1,-1,-1,-1],"split_conditions":[-6.454676E0,2.9919939E1,-3.6991835E0,7.161048E-3,4.1634007E-4,-5.1754545E-3,-2.8633722E-4],"split_indices":[3,7,3,0,0,0,0],"split_type":[0,0,0,0,0,0,0],"sum_hessian":[7.35E2,7.5E1,6.6E2,3.2E1,4.3E1,7.9E1,5.81E2],"tree_param":{"num_deleted":"0","num_feature":"8","num_nodes":"7","size_leaf_vector":"1"}},{"base_weights":[9.309742E-3,1.0373277E-2,-1.8228048E-2,-2.8633182E-3,5.53138E-4],"categories":[],"categories_nodes":[],"categories_segments":[],"categories_sizes":[],"default_left":[0,0,0,0,0],"id":5,"left_children":[1,-1,3,-1,-1],"loss_changes":[2.1694532E1,0E0,1.4348605E1,0E0,0E0],"parents":[2147483647,0,0,2,2],"right_children":[2,-1,4,-1,-1],"split_conditions":[-1.1563197E1,1.0373277E-2,-3.3241603E0,-2.8633182E-3,5.53138E-4],"split_indices":[3,0,3,0,0],"split_type":[0,0,0,0,0],"sum_hessian":[7.22E2,1.5E1,7.07E2,1.52E2,5.55E2],"tree_param":{"num_deleted":"0","num_feature":"8","num_nodes":"5","size_leaf_vector":"1"}},{"base_weights":[4.5137154E-3,1.0090816E-1,-2.5988394E-1,-2.239888E-4,3.3156138E-3,-4.9319244E-3,1.135202E-5],"categories":[],"categories_nodes":[],"categories_segments":[],"categories_sizes":[],"default_left":[0,0,0,0,0,0,0],"id":6,"left_children":[1,3,5,-1,-1,-1,-1],"loss_changes":[1.8704697E1,1.5846729E1,1.23699665E1,0E0,0E0,0E0,0E0],"parents":[2147483647,0,0,1,1,2,2],"right_children":[2,4,6,-1,-1,-1,-1],"split_conditions":[3.8773928E0,1.0740571E0,6.8338194E0,-2.239888E-4,3.3156138E-3,-4.9319244E-3,1.135202E-5],"split_indices":[2,1,2,0,0,0,0],"split_type":[0,0,0,0,0,0,0],"sum_hessian":[7.3E2,5.4E2,1.9E2,3.52E2,1.88E2,1E2,9E1],"tree_param":{"num_deleted":"0","num_feature":"8","num_nodes":"7","size_leaf_vector":"1"}},{"base_weights":[-1.1134764E-2,2.5734555E-2,-6.6911705E-2,3.5419106E-4,-2.7697175E-3],"categories":[],"categories_nodes":[],"categories_segments":[],"categories_sizes":[],"default_left":[0,0,0,0,0],"id":7,"left_children":[1,-1,3,-1,-1],"loss_changes":[1.0243835E2,0E0,1.5595484E1,0E0,0E0],"parents":[2147483647,0,0,2,2],"right_children":[2,-1,4,-1,-1],"split_conditions":[-9.505056E0,2.5734555E-2,3.1179867E0,3.5419106E-4,-2.7697175E-3],"split_indices":[2,0,2,0,0],"split_type":[0,0,0,0,0],"sum_hessian":[7.17E2,1E1,7.07E2,4.75E2,2.32E2],"tree_param":{"num_deleted":"0","num_feature":"8","num_nodes":"5","size_leaf_vector":"1"}},{"base_weights":[-0E0,-1.21167146E-1,2.9972973E-1,3.4883304E-4,-4.3284283E-3,8.490298E-3,1.5909384E-3],"categories":[],"categories_nodes":[],"categories_segments":[],"categories_sizes":[],"default_left":[0,0,0,0,0,0,0],"id":8,"left_children":[1,3,5,-1,-1,-1,-1],"loss_changes":[2.6322405E1,2.5472942E1,1.4462023E1,0E0,0E0,0E0,0E0],"parents":[2147483647,0,0,1,1,2,2],"right_children":[2,4,6,-1,-1,-1,-1],"split_conditions":[2.3892748E0,3.031384E0,-6.7234116E0,3.4883304E-4,-4.3284283E-3,8.490298E-3,1.5909384E-3],"split_indices":[5,2,3,0,0,0,0],"split_type":[0,0,0,0,0,0,0],"sum_hessian":[7.13E2,5.09E2,2.04E2,3.4E2,1.69E2,3.5E1,1.69E2],"tree_param":{"num_deleted":"0","num_feature":"8","num_nodes":"7","size_leaf_vector":"1"}},{"base_weights":[-4.4181567E-2,-7.358041E-2,1.111883E-2,-9.175897E-4,3.919571E-3],"categories":[],"categories_nodes":[],"categories_segments":[],"categories_sizes":[],"default_left":[0,0,0,0,0],"id":9,"left_children":[1,3,-1,-1,-1],"loss_changes":[2.3399538E1,5.761281E0,0E0,0E0,0E0],"parents":[2147483647,0,0,1,1],"right_children":[2,4,-1,-1,-1],"split_conditions":[5.8672833E0,8.998216E1,1.111883E-2,-9.175897E-4,3.919571E-3],"split_indices":[5,7,0,0,0],"split_type":[0,0,0,0,0],"sum_hessian":[7.02E2,6.9E2,1.2E1,6.7E2,2E1],"tree_param":{"num_deleted":"0","num_feature":"8","num_nodes":"5","size_leaf_vector":"1"}},{"base_weights":[-3.9417185E-2,-1.09113865E-1,1.4279278E-1,-2.6165842E-4,-4.4359136E-3,2.3030096E-3,-8.132667E-3],"categories":[],"categories_nodes":[],"categories_segments":[],"categories_sizes":[],"default_left":[0,0,0,0,0,0,0],"id":10,"left_children":[1,3,5,-1,-1,-1,-1],"loss_changes":[9.352905E0,1.4370871E1,1.7169786E1,0E0,0E0,0E0,0E0],"parents":[2147483647,0,0,1,1,2,2],"right_children":[2,4,6,-1,-1,-1,-1],"split_conditions":[2.3602145E0,1.9790072E0,3.6034117E0,-2.6165842E-4,-4.4359136E-3,2.3030096E-3,-8.132667E-3],"split_indices":[5,5,0,0,0,0,0],"split_type":[0,0,0,0,0,0,0],"sum_hessian":[7.28E2,5.32E2,1.96E2,4.33E2,9.9E1,1.84E2,1.2E1],"tree_param":{"num_deleted":"0","num_feature":"8","num_nodes":"7","size_leaf_vector":"1"}},{"base_weights":[2.671841E-3,1.4340019E-2,-2.538749E-2,-9.7283436E-4,4.3302737E-3],"categories":[],"categories_nodes":[],"categories_segments":[],"categories_sizes":[],"default_left":[0,0,0,0,0],"id":11,"left_children":[1,-1,3,-1,-1],"loss_changes":[3.1310644E1,0E0,2.3934355E1,0E0,0E0],"parents":[2147483647,0,0,2,2],"right_children":[2,-1,4,-1,-1],"split_conditions":[-1.0095366E1,1.4340019E-2,1.7193056E0,-9.7283436E-4,4.3302737E-3],"split_indices":[2,0,0,0,0],"split_type":[0,0,0,0,0],"sum_hessian":[7.35E2,1E1,7.25E2,6.32E2,9.3E1],"tree_param":{"num_deleted":"0","num_feature":"8","num_nodes":"5","size_leaf_vector":"1"}},{"base_weights":[2.5765782E-2,1.5546584E-2,-6.071074E-3,-4.589662E-4,8.25019E-3],"categories":[],"categories_nodes":[],"categories_segments":[],"categories_sizes":[],"default_left":[0,0,0,0,0],"id":12,"left_children":[1,-1,3,-1,-1],"loss_changes":[3.8199486E1,0E0,2.3936283E1,0E0,0E0],"parents":[2147483647,0,0,2,2],"right_children":[2,-1,4,-1,-1],"split_conditions":[-1.0095366E1,1.5546584E-2,3.1248286E0,-4.589662E-4,8.25019E-3],"split_indices":[2,0,0,0,0],"split_type":[0,0,0,0,0],"sum_hessian":[7.47E2,1.1E1,7.36E2,7.08E2,2.8E1],"tree_param":{"num_deleted":"0","num_feature":"8","num_nodes":"5","size_leaf_vector":"1"}},{"base_weights":[2.8644989E-3,-3.7233472E-2,8.5017097E-1,9.19996E-3,-7.7141356E-4,1.5093378E-2,2.446367E-3],"categories":[],"categories_nodes":[],"categories_segments":[],"categories_sizes":[],"default_left":[0,0,0,0,0,0,0],"id":13,"left_children":[1,3,5,-1,-1,-1,-1],"loss_changes":[2.628279E1,2.6825714E1,1.037001E1,0E0,0E0,0E0,0E0],"parents":[2147483647,0,0,1,1,2,2],"right_children":[2,4,6,-1,-1,-1,-1],"split_conditions":[3.1248286E0,-1.1304866E1,3.6034117E0,9.19996E-3,-7.7141356E-4,1.5093378E-2,2.446367E-3],"split_indices":[0,3,0,0,0,0,0],"split_type":[0,0,0,0,0,0,0],"sum_hessian":[7.4E2,7.1E2,3E1,2.3E1,6.87E2,1E1,2E1],"tree_param":{"num_deleted":"0","num_feature":"8","num_nodes":"7","size_leaf_vector":"1"}},{"base_weights":[-3.353566E-2,6.421961E-2,-3.1446332E-1,1.1712116E-3,-7.248952E-3,-3.8784733E-3,6.238684E-3],"categories":[],"categories_nodes":[],"categories_segments":[],"categories_sizes":[],"default_left":[0,0,0,0,0,0,0],"id":14,"left_children":[1,3,5,-1,-1,-1,-1],"loss_changes":[2.0618288E1,2.2734953E1,1.4332365E1,0E0,0E0,0E0,0E0],"parents":[2147483647,0,0,1,1,2,2],"right_children":[2,4,6,-1,-1,-1,-1],"split_conditions":[3.8773928E0,3.0196335E0,2.8708272E0,1.1712116E-3,-7.248952E-3,-3.8784733E-3,6.238684E-3],"split_indices":[2,4,4,0,0,0,0],"split_type":[0,0,0,0,0,0,0],"sum_hessian":[7.33E2,5.44E2,1.89E2,5.15E2,2.9E1,1.79E2,1E1],"tree_param":{"num_deleted":"0","num_feature":"8","num_nodes":"7","size_leaf_vector":"1"}},{"base_weights":[-1.8967316E-2,1.4067635E-2,-4.9336698E-2,-1.8996944E-3,1.34478E-3],"categories":[],"categories_nodes":[],"categories_segments":[],"categories_sizes":[],"default_left":[0,0,0,0,0],"id":15,"left_children":[1,-1,3,-1,-1],"loss_changes":[3.1203732E1,0E0,1.9157394E1,0E0,0E0],"parents":[2147483647,0,0,2,2],"right_children":[2,-1,4,-1,-1],"split_conditions":[-1.0274321E1,1.4067635E-2,1.495937E0,-1.8996944E-3,1.34478E-3],"split_indices":[2,0,4,0,0],"split_type":[0,0,0,0,0],"sum_hessian":[7.39E2,1E1,7.29E2,4.16E2,3.13E2],"tree_param":{"num_deleted":"0","num_feature":"8","num_nodes":"5","size_leaf_vector":"1"}},{"base_weights":[-0E0,7.732268E-1,-5.052693E-2,1.7760096E-2,1.7577945E-3,-3.7370601E-3,1.5835192E-4],"categories":[],"categories_nodes":[],"categories_segments":[],"categories_sizes":[],"default_left":[0,0,0,0,0,0,0],"id":16,"left_children":[1,3,5,-1,-1,-1,-1],"loss_changes":[2.9274227E1,2.4046335E1,1.5271574E1,0E0,0E0,0E0,0E0],"parents":[2147483647,0,0,1,1,2,2],"right_children":[2,4,6,-1,-1,-1,-1],"split_conditions":[-9.427621E0,-8.640816E0,-3.6991835E0,1.7760096E-2,1.7577945E-3,-3.7370601E-3,1.5835192E-4],"split_indices":[3,2,3,0,0,0,0],"split_type":[0,0,0,0,0,0,0],"sum_hessian":[7.3E2,4.1E1,6.89E2,1.1E1,3E1,1.16E2,5.73E2],"tree_param":{"num_deleted":"0","num_feature":"8","num_nodes":"7","size_leaf_vector":"1"}},{"base_weights":[4.2544838E-2,5.3693306E-1,-1.4459164E-2,1.3200781E-2,2.9125144E-3,-4.1972715E-3,4.719197E-4],"categories":[],"categories_nodes":[],"categories_segments":[],"categories_sizes":[],"default_left":[0,0,0,0,0,0,0],"id":17,"left_children":[1,3,5,-1,-1,-1,-1],"loss_changes":[2.1021502E1,1.1281431E1,1.6811916E1,0E0,0E0,0E0,0E0],"parents":[2147483647,0,0,1,1,2,2],"right_children":[2,4,6,-1,-1,-1,-1],"split_conditions":[-7.1853533E0,-1.0274321E1,-3.6991835E0,1.3200781E-2,2.9125144E-3,-4.1972715E-3,4.719197E-4],"split_indices":[3,2,3,0,0,0,0],"split_type":[0,0,0,0,0,0,0],"sum_hessian":[7.21E2,7.2E1,6.49E2,1.1E1,6.1E1,8.4E1,5.65E2],"tree_param":{"num_deleted":"0","num_feature":"8","num_nodes":"7","size_leaf_vector":"1"}},{"base_weights":[1.9263914E-2,-1.2176662E-1,2.0209712E-1,-4.762845E-4,-7.8412695E-3,1.0098323E-3,4.9201855E-3],"categories":[],"categories_nodes":[],"categories_segments":[],"categories_sizes":[],"default_left":[0,0,0,0,0,0,0],"id":18,"left_children":[1,3,5,-1,-1,-1,-1],"loss_changes":[1.9567959E1,1.9802536E1,8.891179E0,0E0,0E0,0E0,0E0],"parents":[2147483647,0,0,1,1,2,2],"right_children":[2,4,6,-1,-1,-1,-1],"split_conditions":[1.495937E0,1.4032035E0,1.5713967E0,-4.762845E-4,-7.8412695E-3,1.0098323E-3,4.9201855E-3],"split_indices":[4,4,0,0,0,0,0],"split_type":[0,0,0,0,0,0,0],"sum_hessian":[7.46E2,4.19E2,3.27E2,3.83E2,3.6E1,2.5E2,7.7E1],"tree_param":{"num_deleted":"0","num_feature":"8","num_nodes":"7","size_leaf_vector":"1"}},{"base_weights":[3.8292356E-2,4.5400482E-1,-1.7003087E-2,7.006182E-3,-2.4931622E-3,-6.406471E-4,3.8409878E-3],"categories":[],"categories_nodes":[],"categories_segments":[],"categories_sizes":[],"default_left":[0,0,0,0,0,0,0],"id":19,"left_children":[1,3,5,-1,-1,-1,-1],"loss_changes":[1.764689E1,1.6935034E1,1.2299251E1,0E0,0E0,0E0,0E0],"parents":[2147483647,0,0,1,1,2,2],"right_children":[2,4,6,-1,-1,-1,-1],"split_conditions":[-4.623553E0,7.344661E-1,1.9412626E0,7.006182E-3,-2.4931622E-3,-6.406471E-4,3.8409878E-3],"split_indices":[2,0,0,0,0,0,0],"split_type":[0,0,0,0,0,0,0],"sum_hessian":[7.42E2,8.5E1,6.57E2,6.4E1,2.1E1,5.94E2,6.3E1],"tree_param":{"num_deleted":"0","num_feature":"8","num_nodes":"7","size_leaf_vector":"1"}},{"base_weights":[-2.0162275E-2,-5.401834E-2,7.542237E-1,3.1847425E-4,-2.3254943E-3,1.1350672E-3,1.0765974E-2],"categories":[],"categories_nodes":[],"categories_segments":[],"categories_sizes":[],"default_left":[0,0,0,0,0,0,0],"id":20,"left_children":[1,3,5,-1,-1,-1,-1],"loss_changes":[1.759369E1,1.0462648E1,3.9822998E0,0E0,0E0,0E0,0E0],"parents":[2147483647,0,0,1,1,2,2],"right_children":[2,4,6,-1,-1,-1,-1],"split_conditions":[3.1248286E0,6.2544292E1,5.0579386E0,3.1847425E-4,-2.3254943E-3,1.1350672E-3,1.0765974E-2],"split_indices":[0,7,1,0,0,0,0],"split_type":[0,0,0,0,0,0,0],"sum_hessian":[6.85E2,6.62E2,2.3E1,4.46E2,2.16E2,1.1E1,1.2E1],"tree_param":{"num_deleted":"0","num_feature":"8","num_nodes":"7","size_leaf_vector":"1"}},{"base_weights":[9.5071726E-2,-4.907544E-2,3.0549708E-1,7.100506E-4,-3.247047E-3,1.2080176E-2,2.4575123E-3],"categories":[],"categories_nodes":[],"categories_segments":[],"categories_sizes":[],"default_left":[0,0,0,0,0,0,0],"id":21,"left_children":[1,3,5,-1,-1,-1,-1],"loss_changes":[2.2079584E1,1.4501697E1,1.2968813E1,0E0,0E0,0E0,0E0],"parents":[2147483647,0,0,1,1,2,2],"right_children":[2,4,6,-1,-1,-1,-1],"split_conditions":[1.5497133E0,1.2503711E0,-7.420777E0,7.100506E-4,-3.247047E-3,1.2080176E-2,2.4575123E-3],"split_indices":[4,4,1,0,0,0,0],"split_type":[0,0,0,0,0,0,0],"sum_hessian":[7.12E2,4.22E2,2.9E2,2.94E2,1.28E2,1.1E1,2.79E2],"tree_param":{"num_deleted":"0","num_feature":"8","num_nodes":"7","size_leaf_vector":"1"}},{"base_weights":[-9.134151E-2,1.1856332E-2,-3.043283E-1,-9.6987776E-4,3.6968626E-3,-5.1015774E-3,-1.5853086E-3],"categories":[],"categories_nodes":[],"categories_segments":[],"categories_sizes":[],"default_left":[0,0,0,0,0,0,0],"id":22,"left_children":[1,3,5,-1,-1,-1,-1],"loss_changes":[1.6179913E1,1.9458443E1,6.09918E0,0E0,0E0,0E0,0E0],"parents":[2147483647,0,0,1,1,2,2],"right_children":[2,4,6,-1,-1,-1,-1],"split_conditions":[6.2979076E1,5.571749E1,1.1625658E0,-9.6987776E-4,3.6968626E-3,-5.1015774E-3,-1.5853086E-3],"split_indices":[7,7,1,0,0,0,0],"split_type":[0,0,0,0,0,0,0],"sum_hessian":[7.17E2,4.83E2,2.34E2,3.71E2,1.12E2,8.9E1,1.45E2],"tree_param":{"num_deleted":"0","num_feature":"8","num_nodes":"7","size_leaf_vector":"1"}},{"base_weights":[-8.653462E-2,-6.848004E-3,-3.1689474E-1,1.3294794E-4,-7.923442E-3,-1.544591E-2,-1.717006E-3],"categories":[],"categories_nodes":[],"categories_segments":[],"categories_sizes":[],"default_left":[0,0,0,0,0,0,0],"id":23,"left_children":[1,3,5,-1,-1,-1,-1],"loss_changes":[1.2973955E1,9.486403E0,2.9578217E1,0E0,0E0,0E0,0E0],"parents":[2147483647,0,0,1,1,2,2],"right_children":[2,4,6,-1,-1,-1,-1],"split_conditions":[3.943575E0,7.983012E0,4.265455E0,1.3294794E-4,-7.923442E-3,-1.544591E-2,-1.717006E-3],"split_indices":[2,1,2,0,0,0,0],"split_type":[0,0,0,0,0,0,0],"sum_hessian":[7.2E2,5.42E2,1.78E2,5.32E2,1E1,1.3E1,1.65E2],"tree_param":{"num_deleted":"0","num_feature":"8","num_nodes":"7","size_leaf_vector":"1"}},{"base_weights":[2.8927648E-2,1.1147946E-2,-0E0,-4.1238382E-4,8.014831E-3],"categories":[],"categories_nodes":[],"categories_segments":[],"categories_sizes":[],"default_left":[0,0,0,0,0],"id":24,"left_children":[1,-1,3,-1,-1],"loss_changes":[2.4232752E1,0E0,2.3671854E1,0E0,0E0],"parents":[2147483647,0,0,2,2],"right_children":[2,-1,4,-1,-1],"split_conditions":[-1.0095366E1,1.1147946E-2,3.1248286E0,-4.1238382E-4,8.014831E-3],"split_indices":[2,0,0,0,0],"split_type":[0,0,0,0,0],"sum_hessian":[7.39E2,1.5E1,7.24E2,6.94E2,3E1],"tree_param":{"num_deleted":"0","num_feature":"8","num_nodes":"5","size_leaf_vector":"1"}},{"base_weights":[-1.2926503E-2,-5.42036E-2,1.7288195E-2,-3.3771333E-3,1.1930802E-4],"categories":[],"categories_nodes":[],"categories_segments":[],"categories_sizes":[],"default_left":[0,0,0,0,0],"id":25,"left_children":[1,3,-1,-1,-1],"loss_changes":[5.285838E1,1.4220741E1,0E0,0E0,0E0],"parents":[2147483647,0,0,1,1],"right_children":[2,4,-1,-1,-1],"split_conditions":[5.8672833E0,-4.028512E0,1.7288195E-2,-3.3771333E-3,1.1930802E-4],"split_indices":[5,3,0,0,0],"split_type":[0,0,0,0,0],"sum_hessian":[7.47E2,7.35E2,1.2E1,1.38E2,5.97E2],"tree_param":{"num_deleted":"0","num_feature":"8","num_nodes":"5","size_leaf_vector":"1"}},{"base_weights":[6.243091E-3,1.0124114E-2,-2.7535437E-2,6.983232E-4,-2.1671797E-3],"categories":[],"categories_nodes":[],"categories_segments":[],"categories_sizes":[],"default_left":[0,0,0,0,0],"id":26,"left_children":[1,-1,3,-1,-1],"loss_changes":[2.6138613E1,0E0,1.3411475E1,0E0,0E0],"parents":[2147483647,0,0,2,2],"right_children":[2,-1,4,-1,-1],"split_conditions":[-6.7685046E0,1.0124114E-2,2.8154292E0,6.983232E-4,-2.1671797E-3],"split_indices":[1,0,2,0,0],"split_type":[0,0,0,0,0],"sum_hessian":[7.31E2,2E1,7.11E2,4.68E2,2.43E2],"tree_param":{"num_deleted":"0","num_feature":"8","num_nodes":"5","size_leaf_vector":"1"}},{"base_weights":[9.507971E-3,8.455252E-3,-8.9084655E-3,-4.2709527E-3,1.5408355E-4],"categories":[],"categories_nodes":[],"categories_segments":[],"categories_sizes":[],"default_left":[0,0,0,0,0],"id":27,"left_children":[1,-1,3,-1,-1],"loss_changes":[1.2144486E1,0E0,7.7662516E0,0E0,0E0],"parents":[2147483647,0,0,2,2],"right_children":[2,-1,4,-1,-1],"split_conditions":[-9.505056E0,8.455252E-3,-2.3546696E0,-4.2709527E-3,1.5408355E-4],"split_indices":[2,0,0,0,0],"split_type":[0,0,0,0,0],"sum_hessian":[7.27E2,1.2E1,7.15E2,3.7E1,6.78E2],"tree_param":{"num_deleted":"0","num_feature":"8","num_nodes":"5","size_leaf_vector":"1"}},{"base_weights":[-4.8993964E-2,7.790854E-1,-1.097418E-1,2.3303354E-2,1.71514E-4,-1.02510685E-2,-8.1887905E-4],"categories":[],"categories_nodes":[],"categories_segments":[],"categories_sizes":[],"default_left":[0,0,0,0,0,0,0],"id":28,"left_children":[1,3,5,-1,-1,-1,-1],"loss_changes":[3.6932823E1,5.655018E1,1.6167843E1,0E0,0E0,0E0,0E0],"parents":[2147483647,0,0,1,1,2,2],"right_children":[2,4,6,-1,-1,-1,-1],"split_conditions":[2.838755E1,-6.530649E0,-3.5922651E0,2.3303354E-2,1.71514E-4,-1.02510685E-2,-8.1887905E-4],"split_indices":[7,1,0,0,0,0,0],"split_type":[0,0,0,0,0,0,0],"sum_hessian":[7.34E2,4.5E1,6.89E2,1.1E1,3.4E1,1.4E1,6.75E2],"tree_param":{"num_deleted":"0","num_feature":"8","num_nodes":"7","size_leaf_vector":"1"}},{"base_weights":[-1.1289131E-2,-2.0247768E-1,2.239225E-1,-9.797787E-4,-7.918259E-3,3.621102E-3,-1.3636533E-3],"categories":[],"categories_nodes":[],"categories_segments":[],"categories_sizes":[],"default_left":[0,0,0,0,0,0,0],"id":29,"left_children":[1,3,5,-1,-1,-1,-1],"loss_changes":[3.2898277E1,2.3726517E1,1.6703321E1,0E0,0E0,0E0,0E0],"parents":[2147483647,0,0,1,1,2,2],"right_children":[2,4,6,-1,-1,-1,-1],"split_conditions":[1.495937E0,1.3698912E0,6.2979076E1,-9.797787E-4,-7.918259E-3,3.621102E-3,-1.3636533E-3],"split_indices":[4,4,7,0,0,0,0],"split_type":[0,0,0,0,0,0,0],"sum_hessian":[7.22E2,4.01E2,3.21E2,3.47E2,5.4E1,2.34E2,8.7E1],"tree_param":{"num_deleted":"0","num_feature":"8","num_nodes":"7","size_leaf_vector":"1"}},{"base_weights":[-4.0041354E-2,-1.3122499E-1,2.1128531E-1,-3.3591874E-4,-5.4763723E-3,4.2879176E-3,-8.022243E-4],"categories":[],"categories_nodes":[],"categories_segments":[],"categories_sizes":[],"default_left":[0,0,0,0,0,0,0],"id":30,"left_children":[1,3,5,-1,-1,-1,-1],"loss_changes":[1.7017061E1,2.1646727E1,1.29479065E1,0E0,0E0,0E0,0E0],"parents":[2147483647,0,0,1,1,2,2],"right_children":[2,4,6,-1,-1,-1,-1],"split_conditions":[2.3892748E0,2.0159776E0,3.1508656E0,-3.3591874E-4,-5.4763723E-3,4.2879176E-3,-8.022243E-4],"split_indices":[5,5,5,0,0,0,0],"split_type":[0,0,0,0,0,0,0],"sum_hessian":[7.35E2,5.44E2,1.91E2,4.47E2,9.7E1,1.1E2,8.1E1],"tree_param":{"num_deleted":"0","num_feature":"8","num_nodes":"7","size_leaf_vector":"1"}},{"base_weights":[-0E0,2.3201479E-1,-6.456071E-2,-5.25157E-3,3.2364076E-3,-2.2187538E-3,4.9573847E-4],"categories":[],"categories_nodes":[],"categories_segments":[],"categories_sizes":[],"default_left":[0,0,0,0,0,0,0],"id":31,"left_children":[1,3,5,-1,-1,-1,-1],"loss_changes":[1.0976243E1,1.1748553E1,1.0407805E1,0E0,0E0,0E0,0E0],"parents":[2147483647,0,0,1,1,2,2],"right_children":[2,4,6,-1,-1,-1,-1],"split_conditions":[-2.0210798E0,-3.5922651E0,1.0740571E0,-5.25157E-3,3.2364076E-3,-2.2187538E-3,4.9573847E-4],"split_indices":[1,0,1,0,0,0,0],"split_type":[0,0,0,0,0,0,0],"sum_hessian":[7.17E2,1.55E2,5.62E2,1.3E1,1.42E2,2.38E2,3.24E2],"tree_param":{"num_deleted":"0","num_feature":"8","num_nodes":"7","size_leaf_vector":"1"}},{"base_weights":[3.7857745E-2,1.2328476E-2,4.6719187E-3,-2.6149773E-3,7.555443E-4],"categories":[],"categories_nodes":[],"categories_segments":[],"categories_sizes":[],"default_left":[0,0,0,0,0],"id":32,"left_children":[1,-1,3,-1,-1],"loss_changes":[2.6374418E1,0E0,1.2817716E1,0E0,0E0],"parents":[2147483647,0,0,2,2],"right_children":[2,-1,4,-1,-1],"split_conditions":[-1.0095366E1,1.2328476E-2,-3.6991835E0,-2.6149773E-3,7.555443E-4],"split_indices":[2,0,3,0,0],"split_type":[0,0,0,0,0],"sum_hessian":[6.92E2,1.3E1,6.79E2,1.37E2,5.42E2],"tree_param":{"num_deleted":"0","num_feature":"8","num_nodes":"5","size_leaf_vector":"1"}},{"base_weights":[2.4514427E-2,1.0355337E-2,-9.466149E-3,-7.9477084E-4,1.8611242E-3],"categories":[],"categories_nodes":[],"categories_segments":[],"categories_sizes":[],"default_left":[0,0,0,0,0],"id":33,"left_children":[1,-1,3,-1,-1],"loss_changes":[2.6429083E1,0E0,9.798638E0,0E0,0E0],"parents":[2147483647,0,0,2,2],"right_children":[2,-1,4,-1,-1],"split_conditions":[-6.7685046E0,1.0355337E-2,2.3892748E0,-7.9477084E-4,1.8611242E-3],"split_indices":[1,0,5,0,0],"split_type":[0,0,0,0,0],"sum_hessian":[7.33E2,2E1,7.13E2,5.31E2,1.82E2],"tree_param":{"num_deleted":"0","num_feature":"8","num_nodes":"5","size_leaf_vector":"1"}},{"base_weights":[1.5953036E-2,7.143257E-2,-2.5712043E-1,-8.719727E-4,2.1341457E-3,-4.563058E-3,8.080517E-4],"categories":[],"categories_nodes":[],"categories_segments":[],"categories_sizes":[],"default_left":[0,0,0,0,0,0,0],"id":34,"left_children":[1,3,5,-1,-1,-1,-1],"loss_changes":[1.1117138E1,1.4228312E1,8.838968E0,0E0,0E0,0E0,0E0],"parents":[2147483647,0,0,1,1,2,2],"right_children":[2,4,6,-1,-1,-1,-1],"split_conditions":[7.222224E1,4.9653503E1,8.0583565E1,-8.719727E-4,2.1341457E-3,-4.563058E-3,8.080517E-4],"split_indices":[7,7,7,0,0,0,0],"split_type":[0,0,0,0,0,0,0],"sum_hessian":[7.35E2,6.17E2,1.18E2,2.89E2,3.28E2,7.5E1,4.3E1],"tree_param":{"num_deleted":"0","num_feature":"8","num_nodes":"7","size_leaf_vector":"1"}},{"base_weights":[1.1169805E-2,7.222909E-1,-3.5561904E-2,4.0458475E-4,1.663818E-2,-2.539437E-3,3.6218637E-4],"categories":[],"categories_nodes":[],"categories_segments":[],"categories_sizes":[],"default_left":[0,0,0,0,0,0,0],"id":35,"left_children":[1,3,5,-1,-1,-1,-1],"loss_changes":[2.5307074E1,2.8131437E1,1.1158231E1,0E0,0E0,0E0,0E0],"parents":[2147483647,0,0,1,1,2,2],"right_children":[2,4,6,-1,-1,-1,-1],"split_conditions":[-9.427621E0,3.0801637E0,-1.8299903E0,4.0458475E-4,1.663818E-2,-2.539437E-3,3.6218637E-4],"split_indices":[3,5,3,0,0,0,0],"split_type":[0,0,0,0,0,0,0],"sum_hessian":[7.32E2,4.2E1,6.9E2,2.8E1,1.4E1,1.71E2,5.19E2],"tree_param":{"num_deleted":"0","num_feature":"8","num_nodes":"7","size_leaf_vector":"1"}},{"base_weights":[6.5953187E-3,-7.7770078E-3,3.2630708E-2,-8.9156086E-4,1.8630166E-3],"categories":[],"categories_nodes":[],"categories_segments":[],"categories_sizes":[],"default_left":[0,0,0,0,0],"id":36,"left_children":[1,-1,3,-1,-1],"loss_changes":[1.4655565E1,0E0,1.3842213E1,0E0,0E0],"parents":[2147483647,0,0,2,2],"right_children":[2,-1,4,-1,-1],"split_conditions":[-3.5922651E0,-7.7770078E-3,1.4743817E0,-8.9156086E-4,1.8630166E-3],"split_indices":[0,0,4,0,0],"split_type":[0,0,0,0,0],"sum_hessian":[7.43E2,1.8E1,7.25E2,4.02E2,3.23E2],"tree_param":{"num_deleted":"0","num_feature":"8","num_nodes":"5","size_leaf_vector":"1"}},{"base_weights":[-2.775637E-2,1.2302378E-2,-5.558589E-2,-1.0103276E-3,5.3350716E-3],"categories":[],"categories_nodes":[],"categories_segments":[],"categories_sizes":[],"default_left":[0,0,0,0,0],"id":37,"left_children":[1,-1,3,-1,-1],"loss_changes":[2.433901E1,0E0,1.8818691E1,0E0,0E0],"parents":[2147483647,0,0,2,2],"right_children":[2,-1,4,-1,-1],"split_conditions":[-1.0095366E1,1.2302378E-2,2.3346238E0,-1.0103276E-3,5.3350716E-3],"split_indices":[2,0,0,0,0],"split_type":[0,0,0,0,0],"sum_hessian":[7.14E2,1E1,7.04E2,6.59E2,4.5E1],"tree_param":{"num_deleted":"0","num_feature":"8","num_nodes":"5","size_leaf_vector":"1"}},{"base_weights":[2.6281616E-2,-1.7878141E-2,1.5290568E-2,-1.9782563E-3,2.17272E-3],"categories":[],"categories_nodes":[],"categories_segments":[],"categories_sizes":[],"default_left":[0,0,0,0,0],"id":38,"left_children":[1,3,-1,-1,-1],"loss_changes":[5.1154057E1,3.1042866E1,0E0,0E0,0E0],"parents":[2147483647,0,0,1,1],"right_children":[2,4,-1,-1,-1],"split_conditions":[4.9150715E0,1.495937E0,1.5290568E-2,-1.9782563E-3,2.17272E-3],"split_indices":[5,4,0,0,0],"split_type":[0,0,0,0,0],"sum_hessian":[7.41E2,7.24E2,1.7E1,4.13E2,3.11E2],"tree_param":{"num_deleted":"0","num_feature":"8","num_nodes":"5","size_leaf_vector":"1"}},{"base_weights":[-7.3660016E-2,7.4485624E-3,-1.01456545E-1,-1.3233165E-2,-6.5417733E-4],"categories":[],"categories_nodes":[],"categories_segments":[],"categories_sizes":[],"default_left":[0,0,0,0,0],"id":39,"left_children":[1,-1,3,-1,-1],"loss_changes":[1.6070326E1,0E0,2.9002487E1,0E0,0E0],"parents":[2147483647,0,0,2,2],"right_children":[2,-1,4,-1,-1],"split_conditions":[2.3657103E1,7.4485624E-3,-8.2294E0,-1.3233165E-2,-6.5417733E-4],"split_indices":[7,0,2,0,0],"split_type":[0,0,0,0,0],"sum_hessian":[7.13E2,1.8E1,6.95E2,1.4E1,6.81E2],"tree_param":{"num_deleted":"0","num_feature":"8","num_nodes":"5","size_leaf_vector":"1"}},{"base_weights":[-3.2028772E-2,-6.438455E-2,1.1549908E-2,-1.905076E-3,9.519618E-4],"categories":[],"categories_nodes":[],"categories_segments":[],"categories_sizes":[],"default_left":[0,0,0,0,0],"id":40,"left_children":[1,3,-1,-1,-1],"loss_changes":[2.7587128E1,1.4737673E1,0E0,0E0,0E0],"parents":[2147483647,0,0,1,1],"right_children":[2,4,-1,-1,-1],"split_conditions":[5.8672833E0,1.4743817E0,1.1549908E-2,-1.905076E-3,9.519618E-4],"split_indices":[5,4,0,0,0],"split_type":[0,0,0,0,0],"sum_hessian":[7.32E2,7.18E2,1.4E1,4.04E2,3.14E2],"tree_param":{"num_deleted":"0","num_feature":"8","num_nodes":"5","size_leaf_vector":"1"}},{"base_weights":[3.321729E-2,-8.064258E-3,5.1946104E-2,1.9501504E-3,-5.512034E-4],"categories":[],"categories_nodes":[],"categories_segments":[],"categories_sizes":[],"default_left":[0,0,0,0,0],"id":41,"left_children":[1,-1,3,-1,-1],"loss_changes":[1.0887427E1,0E0,1.1176563E1,0E0,0E0],"parents":[2147483647,0,0,2,2],"right_children":[2,-1,4,-1,-1],"split_conditions":[-7.647059E0,-8.064258E-3,1.5514387E-1,1.9501504E-3,-5.512034E-4],"split_indices":[1,0,1,0,0],"split_type":[0,0,0,0,0],"sum_hessian":[7.22E2,1E1,7.12E2,3.07E2,4.05E2],"tree_param":{"num_deleted":"0","num_feature":"8","num_nodes":"5","size_leaf_vector":"1"}},{"base_weights":[-4.0202234E-2,1.455004E-2,-7.1760766E-2,3.7908048E-4,-2.7955624E-3],"categories":[],"categories_nodes":[],"categories_segments":[],"categories_sizes":[],"default_left":[0,0,0,0,0],"id":42,"left_children":[1,-1,3,-1,-1],"loss_changes":[3.4339962E1,0E0,1.7067106E1,0E0,0E0],"parents":[2147483647,0,0,2,2],"right_children":[2,-1,4,-1,-1],"split_conditions":[-1.0095366E1,1.455004E-2,2.7657835E0,3.7908048E-4,-2.7955624E-3],"split_indices":[2,0,2,0,0],"split_type":[0,0,0,0,0],"sum_hessian":[7.41E2,1E1,7.31E2,4.78E2,2.53E2],"tree_param":{"num_deleted":"0","num_feature":"8","num_nodes":"5","size_leaf_vector":"1"}},{"base_weights":[-0E0,-2.4041045E-1,7.1870066E-2,6.088215E-4,-4.7682906E-3,1.870989E-3,-7.765864E-4],"categories":[],"categories_nodes":[],"categories_segments":[],"categories_sizes":[],"default_left":[0,0,0,0,0,0,0],"id":43,"left_children":[1,3,5,-1,-1,-1,-1],"loss_changes":[1.2503379E1,1.2456706E1,9.69306E0,0E0,0E0,0E0,0E0],"parents":[2147483647,0,0,1,1,2,2],"right_children":[2,4,6,-1,-1,-1,-1],"split_conditions":[-2.4232178E0,2E0,3.031384E0,6.088215E-4,-4.7682906E-3,1.870989E-3,-7.765864E-4],"split_indices":[2,6,2,0,0,0,0],"split_type":[0,0,0,0,0,0,0],"sum_hessian":[7.09E2,1.62E2,5.47E2,7.1E1,9.1E1,3.12E2,2.35E2],"tree_param":{"num_deleted":"0","num_feature":"8","num_nodes":"7","size_leaf_vector":"1"}},{"base_weights":[-2.946464E-2,8.44219E-1,-6.656025E-2,1.6109822E-2,-1.629804E-4,-1.3744455E-3,2.6361626E-3],"categories":[],"categories_nodes":[],"categories_segments":[],"categories_sizes":[],"default_left":[0,0,0,0,0,0,0],"id":44,"left_children":[1,3,5,-1,-1,-1,-1],"loss_changes":[2.316248E1,2.0860537E1,1.657845E1,0E0,0E0,0E0,0E0],"parents":[2147483647,0,0,1,1,2,2],"right_children":[2,4,6,-1,-1,-1,-1],"split_conditions":[-1.1304866E1,2E0,1.4424863E0,1.6109822E-2,-1.629804E-4,-1.3744455E-3,2.6361626E-3],"split_indices":[3,6,0,0,0,0,0],"split_type":[0,0,0,0,0,0,0],"sum_hessian":[7.25E2,2.4E1,7.01E2,1.1E1,1.3E1,5.82E2,1.19E2],"tree_param":{"num_deleted":"0","num_feature":"8","num_nodes":"7","size_leaf_vector":"1"}},{"base_weights":[-1.9979293E-2,1.7674884E-2,-6.3493975E-2,4.621357E-4,-2.388782E-3],"categories":[],"categories_nodes":[],"categories_segments":[],"categories_sizes":[],"default_left":[0,0,0,0,0],"id":45,"left_children":[1,-1,3,-1,-1],"loss_changes":[5.57151E1,0E0,1.4082122E1,0E0,0E0],"parents":[2147483647,0,0,2,2],"right_children":[2,-1,4,-1,-1],"split_conditions":[-1.0095366E1,1.7674884E-2,6.0392605E1,4.621357E-4,-2.388782E-3],"split_indices":[2,0,7,0,0],"split_type":[0,0,0,0,0],"sum_hessian":[7.26E2,1.2E1,7.14E2,4.38E2,2.76E2],"tree_param":{"num_deleted":"0","num_feature":"8","num_nodes":"5","size_leaf_vector":"1"}},{"base_weights":[5.9338823E-2,1.3986664E-2,2.7554298E-2,-5.4658097E-3,6.529439E-4],"categories":[],"categories_nodes":[],"categories_segments":[],"categories_sizes":[],"default_left":[0,0,0,0,0],"id":46,"left_children":[1,-1,3,-1,-1],"loss_changes":[2.9286821E1,0E0,1.5189719E1,0E0,0E0],"parents":[2147483647,0,0,2,2],"right_children":[2,-1,4,-1,-1],"split_conditions":[-1.0095366E1,1.3986664E-2,2.869943E1,-5.4658097E-3,6.529439E-4],"split_indices":[2,0,7,0,0],"split_type":[0,0,0,0,0],"sum_hessian":[7.21E2,1.1E1,7.1E2,3.8E1,6.72E2],"tree_param":{"num_deleted":"0","num_feature":"8","num_nodes":"5","size_leaf_vector":"1"}},{"base_weights":[-5.1000472E-2,1.371612E-2,-3.7962905E-1,-5.841214E-4,5.600268E-3,1.2932731E-3,-4.7198692E-3],"categories":[],"categories_nodes":[],"categories_segments":[],"categories_sizes":[],"default_left":[0,0,0,0,0,0,0],"id":47,"left_children":[1,3,5,-1,-1,-1,-1],"loss_changes":[1.5811047E1,2.4623075E1,6.3826103E0,0E0,0E0,0E0,0E0],"parents":[2147483647,0,0,1,1,2,2],"right_children":[2,4,6,-1,-1,-1,-1],"split_conditions":[7.222224E1,8.259057E0,6.99897E-1,-5.841214E-4,5.600268E-3,1.2932731E-3,-4.7198692E-3],"split_indices":[7,3,4,0,0,0,0],"split_type":[0,0,0,0,0,0,0],"sum_hessian":[7.2E2,6.03E2,1.17E2,5.35E2,6.8E1,1.6E1,1.01E2],"tree_param":{"num_deleted":"0","num_feature":"8","num_nodes":"7","size_leaf_vector":"1"}},{"base_weights":[3.4163967E-2,1.5627641E-2,8.3087647E-4,-1.3804969E-3,1.7903384E-3],"categories":[],"categories_nodes":[],"categories_segments":[],"categories_sizes":[],"default_left":[0,0,0,0,0],"id":48,"left_children":[1,-1,3,-1,-1],"loss_changes":[3.577844E1,0E0,1.8058037E1,0E0,0E0],"parents":[2147483647,0,0,2,2],"right_children":[2,-1,4,-1,-1],"split_conditions":[-1.0095366E1,1.5627641E-2,1.4743817E0,-1.3804969E-3,1.7903384E-3],"split_indices":[2,0,4,0,0],"split_type":[0,0,0,0,0],"sum_hessian":[7.28E2,1E1,7.18E2,4.01E2,3.17E2],"tree_param":{"num_deleted":"0","num_feature":"8","num_nodes":"5","size_leaf_vector":"1"}},{"base_weights":[2.5553582E-2,1.0611978E0,-1.6767202E-2,-0E0,2.031508E-2,-5.5529573E-4,9.403375E-3],"categories":[],"categories_nodes":[],"categories_segments":[],"categories_sizes":[],"default_left":[0,0,0,0,0,0,0],"id":49,"left_children":[1,3,5,-1,-1,-1,-1],"loss_changes":[3.4618965E1,3.1122051E1,2.675582E1,0E0,0E0,0E0,0E0],"parents":[2147483647,0,0,1,1,2,2],"right_children":[2,4,6,-1,-1,-1,-1],"split_conditions":[2.5821365E1,2.3129256E0,3.1248286E0,-0E0,2.031508E-2,-5.5529573E-4,9.403375E-3],"split_indices":[7,5,0,0,0,0,0],"split_type":[0,0,0,0,0,0,0],"sum_hessian":[7.59E2,2.6E1,7.33E2,1.5E1,1.1E1,7.1E2,2.3E1],"tree_param":{"num_deleted":"0","num_feature":"8","num_nodes":"7","size_leaf_vector":"1"}},{"base_weights":[2.2668924E-2,1.8116657E-2,-1.3826569E-2,-1.58735E-3,1.6562957E-3],"categories":[],"categories_nodes":[],"categories_segments":[],"categories_sizes":[],"default_left":[0,0,0,0,0],"id":50,"left_children":[1,-1,3,-1,-1],"loss_changes":[4.8997406E1,0E0,1.861391E1,0E0,0E0],"parents":[2147483647,0,0,2,2],"right_children":[2,-1,4,-1,-1],"split_conditions":[-1.0095366E1,1.8116657E-2,1.4743817E0,-1.58735E-3,1.6562957E-3],"split_indices":[2,0,4,0,0],"split_type":[0,0,0,0,0],"sum_hessian":[7.16E2,1E1,7.06E2,3.94E2,3.12E2],"tree_param":{"num_deleted":"0","num_feature":"8","num_nodes":"5","size_leaf_vector":"1"}},{"base_weights":[3.694131E-2,1.5391597E-2,-0E0,1.124226E-3,-3.1325405E-3],"categories":[],"categories_nodes":[],"categories_segments":[],"categories_sizes":[],"default_left":[0,0,0,0,0],"id":51,"left_children":[1,-1,3,-1,-1],"loss_changes":[3.9285194E1,0E0,2.5134031E1,0E0,0E0],"parents":[2147483647,0,0,2,2],"right_children":[2,-1,4,-1,-1],"split_conditions":[-9.505056E0,1.5391597E-2,3.943575E0,1.124226E-3,-3.1325405E-3],"split_indices":[2,0,2,0,0],"split_type":[0,0,0,0,0],"sum_hessian":[7.19E2,1.2E1,7.07E2,5.24E2,1.83E2],"tree_param":{"num_deleted":"0","num_feature":"8","num_nodes":"5","size_leaf_vector":"1"}},{"base_weights":[6.630186E-2,2.960657E-1,-6.6174874E-3,1.0474612E-3,5.378223E-3,-4.8408372E-4,6.151609E-3],"categories":[],"categories_nodes":[],"categories_segments":[],"categories_sizes":[],"default_left":[0,0,0,0,0,0,0],"id":52,"left_children":[1,3,5,-1,-1,-1,-1],"loss_changes":[1.2580093E1,7.4012566E0,1.408159E1,0E0,0E0,0E0,0E0],"parents":[2147483647,0,0,1,1,2,2],"right_children":[2,4,6,-1,-1,-1,-1],"split_conditions":[-2.0210798E0,-1.299721E0,3.1248286E0,1.0474612E-3,5.378223E-3,-4.8408372E-4,6.151609E-3],"split_indices":[1,3,0,0,0,0,0],"split_type":[0,0,0,0,0,0,0],"sum_hessian":[7.28E2,1.75E2,5.53E2,1.04E2,7.1E1,5.24E2,2.9E1],"tree_param":{"num_deleted":"0","num_feature":"8","num_nodes":"7","size_leaf_vector":"1"}},{"base_weights":[5.6942664E-2,-1.1901351E-3,5.9432566E-1,1.0086256E-2,-4.2476892E-4,-9.3059835E-4,8.7092575E-3],"categories":[],"categories_nodes":[],"categories_segments":[],"categories_sizes":[],"default_left":[0,0,0,0,0,0,0],"id":53,"left_children":[1,3,5,-1,-1,-1,-1],"loss_changes":[2.4057594E1,2.7640331E1,1.5442928E1,0E0,0E0,0E0,0E0],"parents":[2147483647,0,0,1,1,2,2],"right_children":[2,4,6,-1,-1,-1,-1],"split_conditions":[1.9412626E0,-6.7685046E0,1.5726697E0,1.0086256E-2,-4.2476892E-4,-9.3059835E-4,8.7092575E-3],"split_indices":[0,1,4,0,0,0,0],"split_type":[0,0,0,0,0,0,0],"sum_hessian":[7.46E2,6.76E2,7E1,2.1E1,6.55E2,2E1,5E1],"tree_param":{"num_deleted":"0","num_feature":"8","num_nodes":"7","size_leaf_vector":"1"}},{"base_weights":[-1.6755752E-2,7.542133E-1,-7.059889E-2,-0E0,2.3649082E-2,-3.5369344E-4,-1.0410884E-2],"categories":[],"categories_nodes":[],"categories_segments":[],"categories_sizes":[],"default_left":[0,0,0,0,0,0,0],"id":54,"left_children":[1,3,5,-1,-1,-1,-1],"loss_changes":[2.9968958E1,5.715649E1,2.2330467E1,0E0,0E0,0E0,0E0],"parents":[2147483647,0,0,1,1,2,2],"right_children":[2,4,6,-1,-1,-1,-1],"split_conditions":[2.80386E1,3.327311E0,5.123174E0,-0E0,2.3649082E-2,-3.5369344E-4,-1.0410884E-2],"split_indices":[7,5,5,0,0,0,0],"split_type":[0,0,0,0,0,0,0],"sum_hessian":[7.27E2,4.2E1,6.85E2,3.2E1,1E1,6.67E2,1.8E1],"tree_param":{"num_deleted":"0","num_feature":"8","num_nodes":"7","size_leaf_vector":"1"}},{"base_weights":[-1.7752115E-2,1.1745241E-1,-1.11064516E-1,8.7331785E-3,3.504474E-5,-5.7843016E-3,3.071017E-4],"categories":[],"categories_nodes":[],"categories_segments":[],"categories_sizes":[],"default_left":[0,0,0,0,0,0,0],"id":55,"left_children":[1,3,5,-1,-1,-1,-1],"loss_changes":[9.357019E0,2.486054E1,2.9989994E1,0E0,0E0,0E0,0E0],"parents":[2147483647,0,0,1,1,2,2],"right_children":[2,4,6,-1,-1,-1,-1],"split_conditions":[2E0,-6.1837726E0,-3.3241603E0,8.7331785E-3,3.504474E-5,-5.7843016E-3,3.071017E-4],"split_indices":[6,3,3,0,0,0,0],"split_type":[0,0,0,0,0,0,0],"sum_hessian":[7.32E2,2.94E2,4.38E2,3.3E1,2.61E2,1E2,3.38E2],"tree_param":{"num_deleted":"0","num_feature":"8","num_nodes":"7","size_leaf_vector":"1"}},{"base_weights":[-1.5659515E-2,9.6220225E-2,-2.4042471E-1,-5.835346E-3,1.4099869E-3,-4.9097617E-3,1.17182884E-4],"categories":[],"categories_nodes":[],"categories_segments":[],"categories_sizes":[],"default_left":[0,0,0,0,0,0,0],"id":56,"left_children":[1,3,5,-1,-1,-1,-1],"loss_changes":[1.8767824E1,1.4944534E1,1.6238548E1,0E0,0E0,0E0,0E0],"parents":[2147483647,0,0,1,1,2,2],"right_children":[2,4,6,-1,-1,-1,-1],"split_conditions":[2.8154292E0,-2.7775247E0,4.2319682E-1,-5.835346E-3,1.4099869E-3,-4.9097617E-3,1.17182884E-4],"split_indices":[2,0,0,0,0,0,0],"split_type":[0,0,0,0,0,0,0],"sum_hessian":[7.31E2,4.87E2,2.44E2,2.5E1,4.62E2,1.22E2,1.22E2],"tree_param":{"num_deleted":"0","num_feature":"8","num_nodes":"7","size_leaf_vector":"1"}},{"base_weights":[1.031784E-2,1.036576E-2,-1.023047E-2,-2.265874E-3,5.795813E-4],"categories":[],"categories_nodes":[],"categories_segments":[],"categories_sizes":[],"default_left":[0,0,0,0,0],"id":57,"left_children":[1,-1,3,-1,-1],"loss_changes":[1.611502E1,0E0,1.0605706E1,0E0,0E0],"parents":[2147483647,0,0,2,2],"right_children":[2,-1,4,-1,-1],"split_conditions":[-1.0095366E1,1.036576E-2,-2.5936012E0,-2.265874E-3,5.795813E-4],"split_indices":[2,0,3,0,0],"split_type":[0,0,0,0,0],"sum_hessian":[7.08E2,1E1,6.98E2,1.68E2,5.3E2],"tree_param":{"num_deleted":"0","num_feature":"8","num_nodes":"5","size_leaf_vector":"1"}},{"base_weights":[5.6690234E-3,1.1035497E-1,-2.0232871E-1,-4.3954875E-4,4.1709486E-3,-3.3156062E-3,4.3508536E-3],"categories":[],"categories_nodes":[],"categories_segments":[],"categories_sizes":[],"default_left":[0,0,0,0,0,0,0],"id":58,"left_children":[1,3,5,-1,-1,-1,-1],"loss_changes":[1.6372269E1,2.4415295E1,2.1211319E1,0E0,0E0,0E0,0E0],"parents":[2147483647,0,0,1,1,2,2],"right_children":[2,4,6,-1,-1,-1,-1],"split_conditions":[3.1179867E0,5.527982E1,1.2778489E1,-4.3954875E-4,4.1709486E-3,-3.3156062E-3,4.3508536E-3],"split_indices":[2,7,3,0,0,0,0],"split_type":[0,0,0,0,0,0,0],"sum_hessian":[7.46E2,5.01E2,2.45E2,3.34E2,1.67E2,2.07E2,3.8E1],"tree_param":{"num_deleted":"0","num_feature":"8","num_nodes":"7","size_leaf_vector":"1"}},{"base_weights":[-0E0,-1.4614518E-1,1.7923728E-1,-2.7635926E-4,-4.586137E-3,7.7270046E-3,9.263351E-4],"categories":[],"categories_nodes":[],"categories_segments":[],"categories_sizes":[],"default_left":[0,0,0,0,0,0,0],"id":59,"left_children":[1,3,5,-1,-1,-1,-1],"loss_changes":[1.9305223E1,1.4484724E1,1.57889E1,0E0,0E0,0E0,0E0],"parents":[2147483647,0,0,1,1,2,2],"right_children":[2,4,6,-1,-1,-1,-1],"split_conditions":[1.495937E0,1.274963E0,-1.9064652E0,-2.7635926E-4,-4.586137E-3,7.7270046E-3,9.263351E-4],"split_indices":[4,4,0,0,0,0,0],"split_type":[0,0,0,0,0,0,0],"sum_hessian":[7.27E2,4.01E2,3.26E2,2.97E2,1.04E2,3.5E1,2.91E2],"tree_param":{"num_deleted":"0","num_feature":"8","num_nodes":"7","size_leaf_vector":"1"}},{"base_weights":[-2.6041068E-2,-4.7378096E-1,3.59932E-2,-1.8667117E-3,-8.143825E-3,6.117223E-3,-2.0685306E-4],"categories":[],"categories_nodes":[],"categories_segments":[],"categories_sizes":[],"default_left":[0,0,0,0,0,0,0],"id":60,"left_children":[1,3,5,-1,-1,-1,-1],"loss_changes":[2.0993387E1,7.235523E0,2.1864758E1,0E0,0E0,0E0,0E0],"parents":[2147483647,0,0,1,1,2,2],"right_children":[2,4,6,-1,-1,-1,-1],"split_conditions":[-1.415247E0,-1.9064652E0,-4.7750525E0,-1.8667117E-3,-8.143825E-3,6.117223E-3,-2.0685306E-4],"split_indices":[0,0,2,0,0,0,0],"split_type":[0,0,0,0,0,0,0],"sum_hessian":[7.32E2,8.7E1,6.45E2,5.3E1,3.4E1,5.5E1,5.9E2],"tree_param":{"num_deleted":"0","num_feature":"8","num_nodes":"7","size_leaf_vector":"1"}},{"base_weights":[7.4616335E-2,4.0700212E-2,1.5065451E-2,-1.0172504E-4,6.5903687E-3],"categories":[],"categories_nodes":[],"categories_segments":[],"categories_sizes":[],"default_left":[0,0,0,0,0],"id":61,"left_children":[1,3,-1,-1,-1],"loss_changes":[3.345327E1,2.3205214E1,0E0,0E0,0E0],"parents":[2147483647,0,0,1,1],"right_children":[2,4,-1,-1,-1],"split_conditions":[5.8672833E0,2.3346238E0,1.5065451E-2,-1.0172504E-4,6.5903687E-3],"split_indices":[5,0,0,0,0],"split_type":[0,0,0,0,0],"sum_hessian":[7.22E2,7.11E2,1.1E1,6.6E2,5.1E1],"tree_param":{"num_deleted":"0","num_feature":"8","num_nodes":"5","size_leaf_vector":"1"}},{"base_weights":[-0E0,-1.1612696E-1,3.0999106E-1,-5.6864094E-4,-7.576857E-3,4.3112896E-3,-4.7541475E-3],"categories":[],"categories_nodes":[],"categories_segments":[],"categories_sizes":[],"default_left":[0,0,0,0,0,0,0],"id":62,"left_children":[1,3,5,-1,-1,-1,-1],"loss_changes":[2.6528019E1,1.9577194E1,2.0009024E1,0E0,0E0,0E0,0E0],"parents":[2147483647,0,0,1,1,2,2],"right_children":[2,4,6,-1,-1,-1,-1],"split_conditions":[2.3892748E0,2.2066648E0,3.216461E0,-5.6864094E-4,-7.576857E-3,4.3112896E-3,-4.7541475E-3],"split_indices":[5,5,4,0,0,0,0],"split_type":[0,0,0,0,0,0,0],"sum_hessian":[7.32E2,5.37E2,1.95E2,4.98E2,3.9E1,1.72E2,2.3E1],"tree_param":{"num_deleted":"0","num_feature":"8","num_nodes":"7","size_leaf_vector":"1"}},{"base_weights":[3.611223E-2,1.5058328E-2,-8.999925E-3,-6.398274E-4,1.8558995E-3],"categories":[],"categories_nodes":[],"categories_segments":[],"categories_sizes":[],"default_left":[0,0,0,0,0],"id":63,"left_children":[1,-1,3,-1,-1],"loss_changes":[4.678274E1,0E0,7.0633655E0,0E0,0E0],"parents":[2147483647,0,0,2,2],"right_children":[2,-1,4,-1,-1],"split_conditions":[-7.100804E0,1.5058328E-2,4E0,-6.398274E-4,1.8558995E-3],"split_indices":[1,0,6,0,0],"split_type":[0,0,0,0,0],"sum_hessian":[6.77E2,1.6E1,6.61E2,5.22E2,1.39E2],"tree_param":{"num_deleted":"0","num_feature":"8","num_nodes":"5","size_leaf_vector":"1"}},{"base_weights":[-7.845327E-3,1.3724875E-2,-4.2531837E-2,-1.3776874E-3,1.3460618E-3],"categories":[],"categories_nodes":[],"categories_segments":[],"categories_sizes":[],"default_left":[0,0,0,0,0],"id":64,"left_children":[1,-1,3,-1,-1],"loss_changes":[3.520627E1,0E0,1.26472225E1,0E0,0E0],"parents":[2147483647,0,0,2,2],"right_children":[2,-1,4,-1,-1],"split_conditions":[-9.505056E0,1.3724875E-2,1.6731509E0,-1.3776874E-3,1.3460618E-3],"split_indices":[2,0,4,0,0],"split_type":[0,0,0,0,0],"sum_hessian":[7.52E2,1.3E1,7.39E2,4.85E2,2.54E2],"tree_param":{"num_deleted":"0","num_feature":"8","num_nodes":"5","size_leaf_vector":"1"}},{"base_weights":[4.516352E-2,1.8083252E-1,-2.1919528E-1,1.1161985E-2,1.3923396E-3,-4.640847E-3,4.6726165E-4],"categories":[],"categories_nodes":[],"categories_segments":[],"categories_sizes":[],"default_left":[0,0,0,0,0,0,0],"id":65,"left_children":[1,3,5,-1,-1,-1,-1],"loss_changes":[2.6305626E1,1.6916615E1,1.6610756E1,0E0,0E0,0E0,0E0],"parents":[2147483647,0,0,1,1,2,2],"right_children":[2,4,6,-1,-1,-1,-1],"split_conditions":[2.8154292E0,-1.0095366E1,5.5493894E0,1.1161985E-2,1.3923396E-3,-4.640847E-3,4.6726165E-4],"split_indices":[2,2,2,0,0,0,0],"split_type":[0,0,0,0,0,0,0],"sum_hessian":[7.24E2,4.82E2,2.42E2,1.4E1,4.68E2,1.26E2,1.16E2],"tree_param":{"num_deleted":"0","num_feature":"8","num_nodes":"7","size_leaf_vector":"1"}},{"base_weights":[-1.4202342E-2,-4.780516E-2,7.1243566E-1,3.1264045E-4,-2.8707846E-3,1.312322E-2,6.669881E-4],"categories":[],"categories_nodes":[],"categories_segments":[],"categories_sizes":[],"default_left":[0,0,0,0,0,0,0],"id":66,"left_children":[1,3,5,-1,-1,-1,-1],"loss_changes":[1.7183628E1,1.3506258E1,1.0191757E1,0E0,0E0,0E0,0E0],"parents":[2147483647,0,0,1,1,2,2],"right_children":[2,4,6,-1,-1,-1,-1],"split_conditions":[3.1248286E0,3.8773928E0,3.7381387E0,3.1264045E-4,-2.8707846E-3,1.312322E-2,6.669881E-4],"split_indices":[0,2,0,0,0,0,0],"split_type":[0,0,0,0,0,0,0],"sum_hessian":[7.19E2,6.93E2,2.6E1,5.21E2,1.72E2,1E1,1.6E1],"tree_param":{"num_deleted":"0","num_feature":"8","num_nodes":"7","size_leaf_vector":"1"}},{"base_weights":[-6.895713E-2,-1.2214013E-2,-3.556456E-2,9.8444475E-3,-6.364998E-4],"categories":[],"categories_nodes":[],"categories_segments":[],"categories_sizes":[],"default_left":[0,0,0,0,0],"id":67,"left_children":[1,-1,3,-1,-1],"loss_changes":[2.5848818E1,0E0,1.9331093E1,0E0,0E0],"parents":[2147483647,0,0,2,2],"right_children":[2,-1,4,-1,-1],"split_conditions":[-3.5922651E0,-1.2214013E-2,-1.1563197E1,9.8444475E-3,-6.364998E-4],"split_indices":[0,0,3,0,0],"split_type":[0,0,0,0,0],"sum_hessian":[7.05E2,1.4E1,6.91E2,1.3E1,6.78E2],"tree_param":{"num_deleted":"0","num_feature":"8","num_nodes":"5","size_leaf_vector":"1"}},{"base_weights":[5.3463716E-2,8.679039E-1,-1.4328962E-2,3.434422E-3,2.2251775E-2,-2.5494865E-3,4.7618404E-4],"categories":[],"categories_nodes":[],"categories_segments":[],"categories_sizes":[],"default_left":[0,0,0,0,0,0,0],"id":68,"left_children":[1,3,5,-1,-1,-1,-1],"loss_changes":[4.2435993E1,3.5608723E1,1.0672249E1,0E0,0E0,0E0,0E0],"parents":[2147483647,0,0,1,1,2,2],"right_children":[2,4,6,-1,-1,-1,-1],"split_conditions":[3.065493E1,4.015642E0,4.2738598E1,3.434422E-3,2.2251775E-2,-2.5494865E-3,4.7618404E-4],"split_indices":[7,5,7,0,0,0,0],"split_type":[0,0,0,0,0,0,0],"sum_hessian":[7.47E2,5.4E1,6.93E2,4.4E1,1E1,1.42E2,5.51E2],"tree_param":{"num_deleted":"0","num_feature":"8","num_nodes":"7","size_leaf_vector":"1"}},{"base_weights":[-2.8517056E-2,-7.2544017E-3,-8.427496E-3,1.1640117E-2,-4.4969044E-4],"categories":[],"categories_nodes":[],"categories_segments":[],"categories_sizes":[],"default_left":[0,0,0,0,0],"id":69,"left_children":[1,-1,3,-1,-1],"loss_changes":[9.456205E0,0E0,2.9818085E1,0E0,0E0],"parents":[2147483647,0,0,2,2],"right_children":[2,-1,4,-1,-1],"split_conditions":[-3.5922651E0,-7.2544017E-3,-6.7685046E0,1.1640117E-2,-4.4969044E-4],"split_indices":[0,0,1,0,0],"split_type":[0,0,0,0,0],"sum_hessian":[7.25E2,1.4E1,7.11E2,1.6E1,6.95E2],"tree_param":{"num_deleted":"0","num_feature":"8","num_nodes":"5","size_leaf_vector":"1"}},{"base_weights":[4.5868795E-2,-2.9944181E-2,2.517597E-1,2.4091615E-4,-6.9563435E-3,-0E0,4.4461135E-3],"categories":[],"categories_nodes":[],"categories_segments":[],"categories_sizes":[],"default_left":[0,0,0,0,0,0,0],"id":70,"left_children":[1,3,5,-1,-1,-1,-1],"loss_changes":[1.2028849E1,2.0611383E1,9.810521E0,0E0,0E0,0E0,0E0],"parents":[2147483647,0,0,1,1,2,2],"right_children":[2,4,6,-1,-1,-1,-1],"split_conditions":[2.3892748E0,2.2066648E0,-9.2851794E-1,2.4091615E-4,-6.9563435E-3,-0E0,4.4461135E-3],"split_indices":[5,5,1,0,0,0,0],"split_type":[0,0,0,0,0,0,0],"sum_hessian":[7.49E2,5.47E2,2.02E2,5.09E2,3.8E1,9.1E1,1.11E2],"tree_param":{"num_deleted":"0","num_feature":"8","num_nodes":"7","size_leaf_vector":"1"}},{"base_weights":[3.5493486E-2,1.1593012E-2,5.3441776E-3,1.1008531E-3,-1.7865153E-3],"categories":[],"categories_nodes":[],"categories_segments":[],"categories_sizes":[],"default_left":[0,0,0,0,0],"id":71,"left_children":[1,-1,3,-1,-1],"loss_changes":[2.330108E1,0E0,1.37128315E1,0E0,0E0],"parents":[2147483647,0,0,2,2],"right_children":[2,-1,4,-1,-1],"split_conditions":[-1.0095366E1,1.1593012E-2,2.8154292E0,1.1008531E-3,-1.7865153E-3],"split_indices":[2,0,2,0,0],"split_type":[0,0,0,0,0],"sum_hessian":[7.18E2,1.3E1,7.05E2,4.54E2,2.51E2],"tree_param":{"num_deleted":"0","num_feature":"8","num_nodes":"5","size_leaf_vector":"1"}},{"base_weights":[3.554329E-2,-3.415131E-2,4.7116727E-1,1.105537E-2,-6.48506E-4,6.374011E-3,-0E0],"categories":[],"categories_nodes":[],"categories_segments":[],"categories_sizes":[],"default_left":[0,0,0,0,0,0,0],"id":72,"left_children":[1,3,5,-1,-1,-1,-1],"loss_changes":[2.2680737E1,2.1429964E1,7.605156E0,0E0,0E0,0E0,0E0],"parents":[2147483647,0,0,1,1,2,2],"right_children":[2,4,6,-1,-1,-1,-1],"split_conditions":[1.5923585E0,-9.021373E0,7.0030766E0,1.105537E-2,-6.48506E-4,6.374011E-3,-0E0],"split_indices":[0,2,3,0,0,0,0],"split_type":[0,0,0,0,0,0,0],"sum_hessian":[7.25E2,6.27E2,9.8E1,1.1E1,6.16E2,7E1,2.8E1],"tree_param":{"num_deleted":"0","num_feature":"8","num_nodes":"7","size_leaf_vector":"1"}},{"base_weights":[-8.186882E-3,1.02980964E-1,-1.8127373E-1,6.03993E-4,8.74365E-3,-3.9001368E-3,-2.941206E-4],"categories":[],"categories_nodes":[],"categories_segments":[],"categories_sizes":[],"default_left":[0,0,0,0,0,0,0],"id":73,"left_children":[1,3,5,-1,-1,-1,-1],"loss_changes":[1.3833233E1,1.2991005E1,8.494206E0,0E0,0E0,0E0,0E0],"parents":[2147483647,0,0,1,1,2,2],"right_children":[2,4,6,-1,-1,-1,-1],"split_conditions":[6.0392605E1,5.8909084E1,2E0,6.03993E-4,8.74365E-3,-3.9001368E-3,-2.941206E-4],"split_indices":[7,7,6,0,0,0,0],"split_type":[0,0,0,0,0,0,0],"sum_hessian":[7.05E2,4.27E2,2.78E2,4.11E2,1.6E1,1.11E2,1.67E2],"tree_param":{"num_deleted":"0","num_feature":"8","num_nodes":"7","size_leaf_vector":"1"}},{"base_weights":[-1.9080164E-2,1.086288E-2,-4.7189932E-2,-2.8519602E-3,1.557142E-4],"categories":[],"categories_nodes":[],"categories_segments":[],"categories_sizes":[],"default_left":[0,0,0,0,0],"id":74,"left_children":[1,-1,3,-1,-1],"loss_changes":[2.261416E1,0E0,1.1345641E1,0E0,0E0],"parents":[2147483647,0,0,2,2],"right_children":[2,-1,4,-1,-1],"split_conditions":[-1.0095366E1,1.086288E-2,-3.6991835E0,-2.8519602E-3,1.557142E-4],"split_indices":[2,0,3,0,0],"split_type":[0,0,0,0,0],"sum_hessian":[7.48E2,1.3E1,7.35E2,1.53E2,5.82E2],"tree_param":{"num_deleted":"0","num_feature":"8","num_nodes":"5","size_leaf_vector":"1"}},{"base_weights":[-3.502504E-3,1.0630868E-1,-2.2445662E-1,-2.4536077E-4,4.04512E-3,-3.149959E-3,2.7911009E-3],"categories":[],"categories_nodes":[],"categories_segments":[],"categories_sizes":[],"default_left":[0,0,0,0,0,0,0],"id":75,"left_children":[1,3,5,-1,-1,-1,-1],"loss_changes":[1.7658457E1,1.9158405E1,1.1554476E1,0E0,0E0,0E0,0E0],"parents":[2147483647,0,0,1,1,2,2],"right_children":[2,4,6,-1,-1,-1,-1],"split_conditions":[2.8154292E0,1.7935052E0,2.3975554E0,-2.4536077E-4,4.04512E-3,-3.149959E-3,2.7911009E-3],"split_indices":[2,4,4,0,0,0,0],"split_type":[0,0,0,0,0,0,0],"sum_hessian":[7.13E2,4.75E2,2.38E2,3.31E2,1.44E2,2.05E2,3.3E1],"tree_param":{"num_deleted":"0","num_feature":"8","num_nodes":"7","size_leaf_vector":"1"}},{"base_weights":[-5.7214466E-3,4.0187612E-1,-5.8025494E-2,8.4557785E-3,-3.451366E-4,-1.3309048E-3,2.0393187E-3],"categories":[],"categories_nodes":[],"categories_segments":[],"categories_sizes":[],"default_left":[0,0,0,0,0,0,0],"id":76,"left_children":[1,3,5,-1,-1,-1,-1],"loss_changes":[1.505847E1,1.6447136E1,1.2689043E1,0E0,0E0,0E0,0E0],"parents":[2147483647,0,0,1,1,2,2],"right_children":[2,4,6,-1,-1,-1,-1],"split_conditions":[-6.7234116E0,2E0,4E0,8.4557785E-3,-3.451366E-4,-1.3309048E-3,2.0393187E-3],"split_indices":[3,6,6,0,0,0,0],"split_type":[0,0,0,0,0,0,0],"sum_hessian":[7.12E2,7.5E1,6.37E2,3.6E1,3.9E1,5E2,1.37E2],"tree_param":{"num_deleted":"0","num_feature":"8","num_nodes":"7","size_leaf_vector":"1"}},{"base_weights":[-1.3592536E-2,-8.033897E-2,1.6238752E-1,-1.8707826E-4,-6.2136357E-3,4.8987675E-3,-0E0],"categories":[],"categories_nodes":[],"categories_segments":[],"categories_sizes":[],"default_left":[0,0,0,0,0,0,0],"id":77,"left_children":[1,3,5,-1,-1,-1,-1],"loss_changes":[8.546046E0,1.7174171E1,1.0857406E1,0E0,0E0,0E0,0E0],"parents":[2147483647,0,0,1,1,2,2],"right_children":[2,4,6,-1,-1,-1,-1],"split_conditions":[2.4116302E0,2.2066648E0,2E0,-1.8707826E-4,-6.2136357E-3,4.8987675E-3,-0E0],"split_indices":[5,5,6,0,0,0,0],"split_type":[0,0,0,0,0,0,0],"sum_hessian":[7.24E2,5.31E2,1.93E2,4.83E2,4.8E1,6.2E1,1.31E2],"tree_param":{"num_deleted":"0","num_feature":"8","num_nodes":"7","size_leaf_vector":"1"}},{"base_weights":[5.589965E-2,1.0336514E0,1.587654E-2,1.9180357E-2,-4.3901926E-4,-4.782701E-4,4.302432E-3],"categories":[],"categories_nodes":[],"categories_segments":[],"categories_sizes":[],"default_left":[0,0,0,0,0,0,0],"id":78,"left_children":[1,3,5,-1,-1,-1,-1],"loss_changes":[2.7787458E1,2.8978354E1,1.9385286E1,0E0,0E0,0E0,0E0],"parents":[2147483647,0,0,1,1,2,2],"right_children":[2,4,6,-1,-1,-1,-1],"split_conditions":[2.4524826E1,2E0,1.5923585E0,1.9180357E-2,-4.3901926E-4,-4.782701E-4,4.302432E-3],"split_indices":[7,6,0,0,0,0,0],"split_type":[0,0,0,0,0,0,0],"sum_hessian":[7.34E2,2.3E1,7.11E2,1.1E1,1.2E1,6.18E2,9.3E1],"tree_param":{"num_deleted":"0","num_feature":"8","num_nodes":"7","size_leaf_vector":"1"}},{"base_weights":[8.1918105E-2,1.1594034E0,4.2105295E-2,1.5596838E-2,3.0598855E-3,-2.814959E-4,4.8347265E-3],"categories":[],"categories_nodes":[],"categories_segments":[],"categories_sizes":[],"default_left":[0,0,0,0,0,0,0],"id":79,"left_children":[1,3,5,-1,-1,-1,-1],"loss_changes":[2.9955538E1,4.288231E0,2.2601217E1,0E0,0E0,0E0,0E0],"parents":[2147483647,0,0,1,1,2,2],"right_children":[2,4,6,-1,-1,-1,-1],"split_conditions":[-7.100804E0,-7.333099E0,1.6101152E0,1.5596838E-2,3.0598855E-3,-2.814959E-4,4.8347265E-3],"split_indices":[1,2,0,0,0,0,0],"split_type":[0,0,0,0,0,0,0],"sum_hessian":[7.27E2,2E1,7.07E2,1E1,1E1,6.12E2,9.5E1],"tree_param":{"num_deleted":"0","num_feature":"8","num_nodes":"7","size_leaf_vector":"1"}},{"base_weights":[-1.8069953E-2,9.977039E-2,-1.6752154E-1,4.4643076E-4,1.1611483E-2,-1.1034706E-3,-1.1818671E-2],"categories":[],"categories_nodes":[],"categories_segments":[],"categories_sizes":[],"default_left":[0,0,0,0,0,0,0],"id":80,"left_children":[1,3,5,-1,-1,-1,-1],"loss_changes":[1.2990049E1,2.234896E1,1.701997E1,0E0,0E0,0E0,0E0],"parents":[2147483647,0,0,1,1,2,2],"right_children":[2,4,6,-1,-1,-1,-1],"split_conditions":[3.1363276E-1,4.9150715E0,4.155734E0,4.4643076E-4,1.1611483E-2,-1.1034706E-3,-1.1818671E-2],"split_indices":[0,5,5,0,0,0,0],"split_type":[0,0,0,0,0,0,0],"sum_hessian":[7.24E2,4.02E2,3.22E2,3.88E2,1.4E1,3.11E2,1.1E1],"tree_param":{"num_deleted":"0","num_feature":"8","num_nodes":"7","size_leaf_vector":"1"}},{"base_weights":[-2.0910408E-2,7.83661E-1,-6.05727E-2,1.3502905E-2,-1.7784875E-3,-1.12511935E-2,-2.881864E-4],"categories":[],"categories_nodes":[],"categories_segments":[],"categories_sizes":[],"default_left":[0,0,0,0,0,0,0],"id":81,"left_children":[1,3,5,-1,-1,-1,-1],"loss_changes":[2.2490276E1,2.0352238E1,2.2076082E1,0E0,0E0,0E0,0E0],"parents":[2147483647,0,0,1,1,2,2],"right_children":[2,4,6,-1,-1,-1,-1],"split_conditions":[2.5821365E1,-3.872374E-1,-3.5922651E0,1.3502905E-2,-1.7784875E-3,-1.12511935E-2,-2.881864E-4],"split_indices":[7,0,0,0,0,0,0],"split_type":[0,0,0,0,0,0,0],"sum_hessian":[7.15E2,2.8E1,6.87E2,1.7E1,1.1E1,1.4E1,6.73E2],"tree_param":{"num_deleted":"0","num_feature":"8","num_nodes":"7","size_leaf_vector":"1"}},{"base_weights":[4.7197826E-2,3.8838193E-3,1.7447807E-2,8.302714E-4,-1.0930173E-3],"categories":[],"categories_nodes":[],"categories_segments":[],"categories_sizes":[],"default_left":[0,0,0,0,0],"id":82,"left_children":[1,3,-1,-1,-1],"loss_changes":[5.3143703E1,6.5941844E0,0E0,0E0,0E0],"parents":[2147483647,0,0,1,1],"right_children":[2,4,-1,-1,-1],"split_conditions":[5.8672833E0,5.983324E1,1.7447807E-2,8.302714E-4,-1.0930173E-3],"split_indices":[5,7,0,0,0],"split_type":[0,0,0,0,0],"sum_hessian":[7.42E2,7.29E2,1.3E1,4.35E2,2.94E2],"tree_param":{"num_deleted":"0","num_feature":"8","num_nodes":"5","size_leaf_vector":"1"}},{"base_weights":[6.4408183E-3,3.6272317E-2,-6.4846444E-1,1.09938E-2,1.1908197E-4,-1.0816617E-2,-0E0],"categories":[],"categories_nodes":[],"categories_segments":[],"categories_sizes":[],"default_left":[0,0,0,0,0,0,0],"id":83,"left_children":[1,3,5,-1,-1,-1,-1],"loss_changes":[1.3943115E1,1.7291157E1,9.1941595E0,0E0,0E0,0E0,0E0],"parents":[2147483647,0,0,1,1,2,2],"right_children":[2,4,6,-1,-1,-1,-1],"split_conditions":[3.216461E0,-9.505056E0,-2.6879132E0,1.09938E-2,1.1908197E-4,-1.0816617E-2,-0E0],"split_indices":[4,2,2,0,0,0,0],"split_type":[0,0,0,0,0,0,0],"sum_hessian":[7.34E2,7.08E2,2.6E1,1E1,6.98E2,1.4E1,1.2E1],"tree_param":{"num_deleted":"0","num_feature":"8","num_nodes":"7","size_leaf_vector":"1"}},{"base_weights":[1.0550651E-2,-9.022151E-2,1.3946743E-1,2.6989048E-5,-4.9506444E-3,-6.855031E-3,1.8075854E-3],"categories":[],"categories_nodes":[],"categories_segments":[],"categories_sizes":[],"default_left":[0,0,0,0,0,0,0],"id":84,"left_children":[1,3,5,-1,-1,-1,-1],"loss_changes":[9.933525E0,1.6411533E1,1.1628422E1,0E0,0E0,0E0,0E0],"parents":[2147483647,0,0,1,1,2,2],"right_children":[2,4,6,-1,-1,-1,-1],"split_conditions":[1.495937E0,1.3373972E0,-7.9092345E0,2.6989048E-5,-4.9506444E-3,-6.855031E-3,1.8075854E-3],"split_indices":[4,4,1,0,0,0,0],"split_type":[0,0,0,0,0,0,0],"sum_hessian":[7.51E2,4.18E2,3.33E2,3.42E2,7.6E1,1.1E1,3.22E2],"tree_param":{"num_deleted":"0","num_feature":"8","num_nodes":"7","size_leaf_vector":"1"}},{"base_weights":[1.7559402E-2,4.715013E-2,-8.613787E-3,7.80974E-5,9.40568E-3],"categories":[],"categories_nodes":[],"categories_segments":[],"categories_sizes":[],"default_left":[0,0,0,0,0],"id":85,"left_children":[1,3,-1,-1,-1],"loss_changes":[1.8427004E1,2.4110144E1,0E0,0E0,0E0],"parents":[2147483647,0,0,1,1],"right_children":[2,4,-1,-1,-1],"split_conditions":[5.123174E0,3.1248286E0,-8.613787E-3,7.80974E-5,9.40568E-3],"split_indices":[5,0,0,0,0],"split_type":[0,0,0,0,0],"sum_hessian":[7.27E2,7.09E2,1.8E1,6.85E2,2.4E1],"tree_param":{"num_deleted":"0","num_feature":"8","num_nodes":"5","size_leaf_vector":"1"}},{"base_weights":[-1.5161338E-3,-7.1826145E-2,3.7909862E-1,2.8856134E-3,-1.151884E-3,-5.3684944E-3,5.3819628E-3],"categories":[],"categories_nodes":[],"categories_segments":[],"categories_sizes":[],"default_left":[0,0,0,0,0,0,0],"id":86,"left_children":[1,3,5,-1,-1,-1,-1],"loss_changes":[1.9123573E1,9.6035595E0,1.7621494E1,0E0,0E0,0E0,0E0],"parents":[2147483647,0,0,1,1,2,2],"right_children":[2,4,6,-1,-1,-1,-1],"split_conditions":[1.5923585E0,-5.133783E0,-3.2225425E0,2.8856134E-3,-1.151884E-3,-5.3684944E-3,5.3819628E-3],"split_indices":[0,2,2,0,0,0,0],"split_type":[0,0,0,0,0,0,0],"sum_hessian":[7.16E2,6.1E2,1.06E2,6E1,5.5E2,1.3E1,9.3E1],"tree_param":{"num_deleted":"0","num_feature":"8","num_nodes":"7","size_leaf_vector":"1"}},{"base_weights":[-5.4438654E-2,-3.298211E-2,-9.923876E-3,-8.9893065E-4,1.8504391E-3],"categories":[],"categories_nodes":[],"categories_segments":[],"categories_sizes":[],"default_left":[0,0,0,0,0],"id":87,"left_children":[1,3,-1,-1,-1],"loss_changes":[1.3401703E1,8.85979E0,0E0,0E0,0E0],"parents":[2147483647,0,0,1,1],"right_children":[2,4,-1,-1,-1],"split_conditions":[6.222041E0,2.576021E0,-9.923876E-3,-8.9893065E-4,1.8504391E-3],"split_indices":[5,5,0,0,0],"split_type":[0,0,0,0,0],"sum_hessian":[7.2E2,7.1E2,1E1,5.69E2,1.41E2],"tree_param":{"num_deleted":"0","num_feature":"8","num_nodes":"5","size_leaf_vector":"1"}},{"base_weights":[-3.7320491E-3,-2.9705184E-2,9.835603E-3,1.619523E-4,-4.1156816E-3],"categories":[],"categories_nodes":[],"categories_segments":[],"categories_sizes":[],"default_left":[0,0,0,0,0],"id":88,"left_children":[1,3,-1,-1,-1],"loss_changes":[1.803989E1,1.3083676E1,0E0,0E0,0E0],"parents":[2147483647,0,0,1,1],"right_children":[2,4,-1,-1,-1],"split_conditions":[5.8672833E0,5.0579386E0,9.835603E-3,1.619523E-4,-4.1156816E-3],"split_indices":[5,1,0,0,0],"split_type":[0,0,0,0,0],"sum_hessian":[7.3E2,7.17E2,1.3E1,6.42E2,7.5E1],"tree_param":{"num_deleted":"0","num_feature":"8","num_nodes":"5","size_leaf_vector":"1"}},{"base_weights":[3.8586897E-3,4.678686E-1,-5.7505354E-2,9.983091E-3,1.3110034E-4,-5.234131E-3,5.312769E-5],"categories":[],"categories_nodes":[],"categories_segments":[],"categories_sizes":[],"default_left":[0,0,0,0,0,0,0],"id":89,"left_children":[1,3,5,-1,-1,-1,-1],"loss_changes":[2.164377E1,2.0391933E1,1.976072E1,0E0,0E0,0E0,0E0],"parents":[2147483647,0,0,1,1,2,2],"right_children":[2,4,6,-1,-1,-1,-1],"split_conditions":[-6.454676E0,2E0,-3.6991835E0,9.983091E-3,1.3110034E-4,-5.234131E-3,5.312769E-5],"split_indices":[3,6,3,0,0,0,0],"split_type":[0,0,0,0,0,0,0],"sum_hessian":[7.36E2,8.4E1,6.52E2,3.5E1,4.9E1,7.5E1,5.77E2],"tree_param":{"num_deleted":"0","num_feature":"8","num_nodes":"7","size_leaf_vector":"1"}},{"base_weights":[3.228938E-3,-2.1588631E-2,1.1049004E-2,-9.273216E-4,2.5200264E-3],"categories":[],"categories_nodes":[],"categories_segments":[],"categories_sizes":[],"default_left":[0,0,0,0,0],"id":90,"left_children":[1,3,-1,-1,-1],"loss_changes":[2.1079346E1,1.3874511E1,0E0,0E0,0E0],"parents":[2147483647,0,0,1,1],"right_children":[2,4,-1,-1,-1],"split_conditions":[5.5066504E0,4E0,1.1049004E-2,-9.273216E-4,2.5200264E-3],"split_indices":[5,6,0,0,0],"split_type":[0,0,0,0,0],"sum_hessian":[7.22E2,7.1E2,1.2E1,5.69E2,1.41E2],"tree_param":{"num_deleted":"0","num_feature":"8","num_nodes":"5","size_leaf_vector":"1"}},{"base_weights":[-2.4042469E-2,-2.7620965E-1,3.0239409E-2,-1.3226096E-3,-1.0448885E-2,-1.661602E-3,1.4394752E-3],"categories":[],"categories_nodes":[],"categories_segments":[],"categories_sizes":[],"default_left":[0,0,0,0,0,0,0],"id":91,"left_children":[1,3,5,-1,-1,-1,-1],"loss_changes":[1.0197923E1,1.2737702E1,1.342972E1,0E0,0E0,0E0,0E0],"parents":[2147483647,0,0,1,1,2,2],"right_children":[2,4,6,-1,-1,-1,-1],"split_conditions":[-4.5194936E0,4.908394E1,1.4806918E0,-1.3226096E-3,-1.0448885E-2,-1.661602E-3,1.4394752E-3],"split_indices":[3,7,5,0,0,0,0],"split_type":[0,0,0,0,0,0,0],"sum_hessian":[7.19E2,1.27E2,5.92E2,1.13E2,1.4E1,2.13E2,3.79E2],"tree_param":{"num_deleted":"0","num_feature":"8","num_nodes":"7","size_leaf_vector":"1"}},{"base_weights":[4.5552445E-3,-6.8906076E-2,2.2351712E-1,2.2479387E-3,-1.2942698E-3,3.3101076E-3,-5.5175335E-3],"categories":[],"categories_nodes":[],"categories_segments":[],"categories_sizes":[],"default_left":[0,0,0,0,0,0,0],"id":92,"left_children":[1,3,5,-1,-1,-1,-1],"loss_changes":[1.2166859E1,9.932999E0,1.6609737E1,0E0,0E0,0E0,0E0],"parents":[2147483647,0,0,1,1,2,2],"right_children":[2,4,6,-1,-1,-1,-1],"split_conditions":[2.3970208E0,-2.487643E0,5.123174E0,2.2479387E-3,-1.2942698E-3,3.3101076E-3,-5.5175335E-3],"split_indices":[5,1,5,0,0,0,0],"split_type":[0,0,0,0,0,0,0],"sum_hessian":[7.37E2,5.51E2,1.86E2,8.9E1,4.62E2,1.67E2,1.9E1],"tree_param":{"num_deleted":"0","num_feature":"8","num_nodes":"7","size_leaf_vector":"1"}},{"base_weights":[3.3277266E-2,6.346822E-1,-4.406741E-3,1.4424848E-3,1.3019545E-2,1.6940788E-4,-9.4095E-3],"categories":[],"categories_nodes":[],"categories_segments":[],"categories_sizes":[],"default_left":[0,0,0,0,0,0,0],"id":93,"left_children":[1,3,5,-1,-1,-1,-1],"loss_changes":[1.770976E1,1.2668402E1,1.5238648E1,0E0,0E0,0E0,0E0],"parents":[2147483647,0,0,1,1,2,2],"right_children":[2,4,6,-1,-1,-1,-1],"split_conditions":[-9.427621E0,3.0801637E0,5.123174E0,1.4424848E-3,1.3019545E-2,1.6940788E-4,-9.4095E-3],"split_indices":[3,5,5,0,0,0,0],"split_type":[0,0,0,0,0,0,0],"sum_hessian":[7.48E2,4.1E1,7.07E2,2.8E1,1.3E1,6.95E2,1.2E1],"tree_param":{"num_deleted":"0","num_feature":"8","num_nodes":"7","size_leaf_vector":"1"}},{"base_weights":[-0E0,8.776925E-3,-1.6841423E-2,-7.045168E-3,-0E0],"categories":[],"categories_nodes":[],"categories_segments":[],"categories_sizes":[],"default_left":[0,0,0,0,0],"id":94,"left_children":[1,-1,3,-1,-1],"loss_changes":[1.1763916E1,0E0,8.725436E0,0E0,0E0],"parents":[2147483647,0,0,2,2],"right_children":[2,-1,4,-1,-1],"split_conditions":[-1.0095366E1,8.776925E-3,-3.7111707E0,-7.045168E-3,-0E0],"split_indices":[2,0,0,0,0],"split_type":[0,0,0,0,0],"sum_hessian":[7.41E2,1E1,7.31E2,1.3E1,7.18E2],"tree_param":{"num_deleted":"0","num_feature":"8","num_nodes":"5","size_leaf_vector":"1"}},{"base_weights":[-9.0287015E-2,-5.9801698E-2,-1.2978445E-2,-2.3026993E-3,1.4376943E-3],"categories":[],"categories_nodes":[],"categories_segments":[],"categories_sizes":[],"default_left":[0,0,0,0,0],"id":95,"left_children":[1,3,-1,-1,-1],"loss_changes":[2.5238049E1,2.5272467E1,0E0,0E0,0E0],"parents":[2147483647,0,0,1,1],"right_children":[2,4,-1,-1,-1],"split_conditions":[5.123174E0,1.4743817E0,-1.2978445E-2,-2.3026993E-3,1.4376943E-3],"split_indices":[5,4,0,0,0],"split_type":[0,0,0,0,0],"sum_hessian":[7.28E2,7.16E2,1.2E1,3.92E2,3.24E2],"tree_param":{"num_deleted":"0","num_feature":"8","num_nodes":"5","size_leaf_vector":"1"}},{"base_weights":[-1.1937305E-3,-7.8871585E-2,3.8037705E-1,-4.285198E-3,2.614593E-4,5.8696787E-3,5.3413084E-4],"categories":[],"categories_nodes":[],"categories_segments":[],"categories_sizes":[],"default_left":[0,0,0,0,0,0,0],"id":96,"left_children":[1,3,5,-1,-1,-1,-1],"loss_changes":[2.1633606E1,2.3114136E1,7.5112324E0,0E0,0E0,0E0,0E0],"parents":[2147483647,0,0,1,1,2,2],"right_children":[2,4,6,-1,-1,-1,-1],"split_conditions":[1.4424863E0,-3.3241603E0,3.6563184E0,-4.285198E-3,2.614593E-4,5.8696787E-3,5.3413084E-4],"split_indices":[0,3,3,0,0,0,0],"split_type":[0,0,0,0,0,0,0],"sum_hessian":[7.3E2,6.12E2,1.18E2,1.4E2,4.72E2,6.8E1,5E1],"tree_param":{"num_deleted":"0","num_feature":"8","num_nodes":"7","size_leaf_vector":"1"}},{"base_weights":[-3.8135327E-2,-1.1171039E-2,-1.1118533E-2,-9.320642E-4,3.0689954E-3],"categories":[],"categories_nodes":[],"categories_segments":[],"categories_sizes":[],"default_left":[0,0,0,0,0],"id":97,"left_children":[1,-1,3,-1,-1],"loss_changes":[2.0235126E1,0E0,1.880356E1,0E0,0E0],"parents":[2147483647,0,0,2,2],"right_children":[2,-1,4,-1,-1],"split_conditions":[-3.5922651E0,-1.1171039E-2,2.576021E0,-9.320642E-4,3.0689954E-3],"split_indices":[0,0,5,0,0],"split_type":[0,0,0,0,0],"sum_hessian":[7.3E2,1.2E1,7.18E2,5.76E2,1.42E2],"tree_param":{"num_deleted":"0","num_feature":"8","num_nodes":"5","size_leaf_vector":"1"}},{"base_weights":[1.9198846E-2,5.311827E-2,-2.894904E-1,-5.134305E-4,2.1094084E-3,-6.2700137E-3,2.3665375E-3],"categories":[],"categories_nodes":[],"categories_segments":[],"categories_sizes":[],"default_left":[0,0,0,0,0,0,0],"id":98,"left_children":[1,3,5,-1,-1,-1,-1],"loss_changes":[7.78767E0,1.160582E1,1.4095558E1,0E0,0E0,0E0,0E0],"parents":[2147483647,0,0,1,1,2,2],"right_children":[2,4,6,-1,-1,-1,-1],"split_conditions":[5.671525E0,1.4888527E0,7.41105E0,-5.134305E-4,2.1094084E-3,-6.2700137E-3,2.3665375E-3],"split_indices":[1,4,2,0,0,0,0],"split_type":[0,0,0,0,0,0,0],"sum_hessian":[7.54E2,6.86E2,6.8E1,4.11E2,2.75E2,4.2E1,2.6E1],"tree_param":{"num_deleted":"0","num_feature":"8","num_nodes":"7","size_leaf_vector":"1"}},{"base_weights":[-4.634439E-2,4.051478E-2,-2.3350951E-1,-2.3835846E-3,1.3434102E-3,-5.751946E-3,-1.8351311E-4],"categories":[],"categories_nodes":[],"categories_segments":[],"categories_sizes":[],"default_left":[0,0,0,0,0,0,0],"id":99,"left_children":[1,3,5,-1,-1,-1,-1],"loss_changes":[1.2221711E1,1.3243568E1,1.6850567E1,0E0,0E0,0E0,0E0],"parents":[2147483647,0,0,1,1,2,2],"right_children":[2,4,6,-1,-1,-1,-1],"split_conditions":[3.1648448E0,-4.3043556E0,4.6593394E0,-2.3835846E-3,1.3434102E-3,-5.751946E-3,-1.8351311E-4],"split_indices":[2,3,2,0,0,0,0],"split_type":[0,0,0,0,0,0,0],"sum_hessian":[7.32E2,4.99E2,2.33E2,1.21E2,3.78E2,8.5E1,1.48E2],"tree_param":{"num_deleted":"0","num_feature":"8","num_nodes":"7","size_leaf_vector":"1"}},{"base_weights":[-8.260355E-3,1.7788567E-2,-4.583201E-2,-1.5059386E-3,8.832867E-4],"categories":[],"categories_nodes":[],"categories_segments":[],"categories_sizes":[],"default_left":[0,0,0,0,0],"id":100,"left_children":[1,-1,3,-1,-1],"loss_changes":[4.896619E1,0E0,1.0515362E1,0E0,0E0],"parents":[2147483647,0,0,2,2],"right_children":[2,-1,4,-1,-1],"split_conditions":[-1.0095366E1,1.7788567E-2,1.4911294E0,-1.5059386E-3,8.832867E-4],"split_indices":[2,0,4,0,0],"split_type":[0,0,0,0,0],"sum_hessian":[7.44E2,1E1,7.34E2,4.16E2,3.18E2],"tree_param":{"num_deleted":"0","num_feature":"8","num_nodes":"5","size_leaf_vector":"1"}},{"base_weights":[-6.3876784E-3,2.5964335E-2,-7.733629E-1,8.30592E-3,-5.7943133E-5,-1.651204E-2,6.4673563E-3],"categories":[],"categories_nodes":[],"categories_segments":[],"categories_sizes":[],"default_left":[0,0,0,0,0,0,0],"id":101,"left_children":[1,3,5,-1,-1,-1,-1],"loss_changes":[1.8986238E1,1.8864353E1,4.4989174E1,0E0,0E0,0E0,0E0],"parents":[2147483647,0,0,1,1,2,2],"right_children":[2,4,6,-1,-1,-1,-1],"split_conditions":[3.216461E0,-1.0614938E1,2.975795E-1,8.30592E-3,-5.7943133E-5,-1.651204E-2,6.4673563E-3],"split_indices":[4,3,2,0,0,0,0],"split_type":[0,0,0,0,0,0,0],"sum_hessian":[7.26E2,7E2,2.6E1,2.3E1,6.77E2,1.6E1,1E1],"tree_param":{"num_deleted":"0","num_feature":"8","num_nodes":"7","size_leaf_vector":"1"}},{"base_weights":[1.11637525E-2,1.217437E-1,-1.2516181E-1,5.3976243E-4,6.926628E-3,-3.293624E-3,7.448881E-4],"categories":[],"categories_nodes":[],"categories_segments":[],"categories_sizes":[],"default_left":[0,0,0,0,0,0,0],"id":102,"left_children":[1,3,5,-1,-1,-1,-1],"loss_changes":[1.1469376E1,1.5470871E1,1.4116622E1,0E0,0E0,0E0,0E0],"parents":[2147483647,0,0,1,1,2,2],"right_children":[2,4,6,-1,-1,-1,-1],"split_conditions":[3.1363276E-1,1.6361676E-1,1.4540023E0,5.3976243E-4,6.926628E-3,-3.293624E-3,7.448881E-4],"split_indices":[0,0,4,0,0,0,0],"split_type":[0,0,0,0,0,0,0],"sum_hessian":[7.51E2,4.19E2,3.32E2,3.81E2,3.8E1,1.65E2,1.67E2],"tree_param":{"num_deleted":"0","num_feature":"8","num_nodes":"7","size_leaf_vector":"1"}},{"base_weights":[3.1334676E-2,-4.129514E-3,1.679931E-2,-2.2859583E-3,5.321379E-4],"categories":[],"categories_nodes":[],"categories_segments":[],"categories_sizes":[],"default_left":[0,0,0,0,0],"id":103,"left_children":[1,3,-1,-1,-1],"loss_changes":[4.4449234E1,9.503786E0,0E0,0E0,0E0],"parents":[2147483647,0,0,1,1],"right_children":[2,4,-1,-1,-1],"split_conditions":[5.8672833E0,-3.6991835E0,1.679931E-2,-2.2859583E-3,5.321379E-4],"split_indices":[5,3,0,0,0],"split_type":[0,0,0,0,0],"sum_hessian":[7.26E2,7.15E2,1.1E1,1.46E2,5.69E2],"tree_param":{"num_deleted":"0","num_feature":"8","num_nodes":"5","size_leaf_vector":"1"}},{"base_weights":[-2.59825E-2,5.087743E-1,-9.08184E-2,2.9058242E-3,1.2761987E-2,-3.967557E-3,-4.3880334E-4],"categories":[],"categories_nodes":[],"categories_segments":[],"categories_sizes":[],"default_left":[0,0,0,0,0,0,0],"id":104,"left_children":[1,3,5,-1,-1,-1,-1],"loss_changes":[2.5435265E1,9.807228E0,9.021786E0,0E0,0E0,0E0,0E0],"parents":[2147483647,0,0,1,1,2,2],"right_children":[2,4,6,-1,-1,-1,-1],"split_conditions":[-5.2768493E0,5.8672833E0,-3.1120663E0,2.9058242E-3,1.2761987E-2,-3.967557E-3,-4.3880334E-4],"split_indices":[2,5,2,0,0,0,0],"split_type":[0,0,0,0,0,0,0],"sum_hessian":[7.34E2,7.4E1,6.6E2,6.4E1,1E1,8E1,5.8E2],"tree_param":{"num_deleted":"0","num_feature":"8","num_nodes":"7","size_leaf_vector":"1"}},{"base_weights":[-2.9681994E-2,3.5692982E-2,-2.1931264E-1,7.635824E-4,-6.3636494E-3,-1.4861359E-2,-7.942846E-4],"categories":[],"categories_nodes":[],"categories_segments":[],"categories_sizes":[],"default_left":[0,0,0,0,0,0,0],"id":105,"left_children":[1,3,5,-1,-1,-1,-1],"loss_changes":[9.235451E0,1.4468161E1,3.1691063E1,0E0,0E0,0E0,0E0],"parents":[2147483647,0,0,1,1,2,2],"right_children":[2,4,6,-1,-1,-1,-1],"split_conditions":[3.8773928E0,3.216461E0,4.265455E0,7.635824E-4,-6.3636494E-3,-1.4861359E-2,-7.942846E-4],"split_indices":[2,4,2,0,0,0,0],"split_type":[0,0,0,0,0,0,0],"sum_hessian":[7.22E2,5.36E2,1.86E2,5.11E2,2.5E1,1.3E1,1.73E2],"tree_param":{"num_deleted":"0","num_feature":"8","num_nodes":"7","size_leaf_vector":"1"}},{"base_weights":[1.6258944E-2,8.4119755E-1,-1.5377555E-2,2.1306302E-2,-4.8512476E-3,1.3987259E-4,-8.943251E-3],"categories":[],"categories_nodes":[],"categories_segments":[],"categories_sizes":[],"default_left":[0,0,0,0,0,0,0],"id":106,"left_children":[1,3,5,-1,-1,-1,-1],"loss_changes":[1.9080921E1,5.2989105E1,1.8364723E1,0E0,0E0,0E0,0E0],"parents":[2147483647,0,0,1,1,2,2],"right_children":[2,4,6,-1,-1,-1,-1],"split_conditions":[-8.640816E0,2.80386E1,3.216461E0,2.1306302E-2,-4.8512476E-3,1.3987259E-4,-8.943251E-3],"split_indices":[2,7,4,0,0,0,0],"split_type":[0,0,0,0,0,0,0],"sum_hessian":[6.92E2,2.2E1,6.7E2,1E1,1.2E1,6.52E2,1.8E1],"tree_param":{"num_deleted":"0","num_feature":"8","num_nodes":"7","size_leaf_vector":"1"}},{"base_weights":[-4.2457912E-2,-2.0695618E-1,3.6255967E-2,-4.3732827E-4,-5.345057E-3,1.5800676E-3,-1.8226659E-3],"categories":[],"categories_nodes":[],"categories_segments":[],"categories_sizes":[],"default_left":[0,0,0,0,0,0,0],"id":107,"left_children":[1,3,5,-1,-1,-1,-1],"loss_changes":[9.815853E0,1.2403498E1,1.34755945E1,0E0,0E0,0E0,0E0],"parents":[2147483647,0,0,1,1,2,2],"right_children":[2,4,6,-1,-1,-1,-1],"split_conditions":[-8.847576E-1,-2.0210798E0,3.943575E0,-4.3732827E-4,-5.345057E-3,1.5800676E-3,-1.8226659E-3],"split_indices":[1,1,2,0,0,0,0],"split_type":[0,0,0,0,0,0,0],"sum_hessian":[7.37E2,2.4E2,4.97E2,1.66E2,7.4E1,3.23E2,1.74E2],"tree_param":{"num_deleted":"0","num_feature":"8","num_nodes":"7","size_leaf_vector":"1"}},{"base_weights":[5.0367802E-2,-8.7249674E-2,2.3732094E-1,1.3963015E-4,-3.3327495E-3,1.3213984E-3,6.689334E-3],"categories":[],"categories_nodes":[],"categories_segments":[],"categories_sizes":[],"default_left":[0,0,0,0,0,0,0],"id":108,"left_children":[1,3,5,-1,-1,-1,-1],"loss_changes":[1.9523888E1,1.1099758E1,1.3374952E1,0E0,0E0,0E0,0E0],"parents":[2147483647,0,0,1,1,2,2],"right_children":[2,4,6,-1,-1,-1,-1],"split_conditions":[1.5497133E0,1.274963E0,2.0050144E0,1.3963015E-4,-3.3327495E-3,1.3213984E-3,6.689334E-3],"split_indices":[4,4,0,0,0,0,0],"split_type":[0,0,0,0,0,0,0],"sum_hessian":[7.44E2,4.27E2,3.17E2,3.03E2,1.24E2,2.62E2,5.5E1],"tree_param":{"num_deleted":"0","num_feature":"8","num_nodes":"7","size_leaf_vector":"1"}},{"base_weights":[2.6185907E-2,-3.1254407E-2,3.0569685E-1,-3.6666614E-5,-8.636188E-3,1.0349482E-3,6.8788454E-3],"categories":[],"categories_nodes":[],"categories_segments":[],"categories_sizes":[],"default_left":[0,0,0,0,0,0,0],"id":109,"left_children":[1,3,5,-1,-1,-1,-1],"loss_changes":[1.1865901E1,1.2848789E1,8.5898285E0,0E0,0E0,0E0,0E0],"parents":[2147483647,0,0,1,1,2,2],"right_children":[2,4,6,-1,-1,-1,-1],"split_conditions":[2.0997357E0,2.0486355E0,8.110266E0,-3.6666614E-5,-8.636188E-3,1.0349482E-3,6.8788454E-3],"split_indices":[4,4,3,0,0,0,0],"split_type":[0,0,0,0,0,0,0],"sum_hessian":[7.14E2,5.93E2,1.21E2,5.8E2,1.3E1,8.5E1,3.6E1],"tree_param":{"num_deleted":"0","num_feature":"8","num_nodes":"7","size_leaf_vector":"1"}},{"base_weights":[5.9784766E-2,2.8604237E-2,1.2417725E-2,-7.129738E-3,4.5383858E-4],"categories":[],"categories_nodes":[],"categories_segments":[],"categories_sizes":[],"default_left":[0,0,0,0,0],"id":110,"left_children":[1,3,-1,-1,-1],"loss_changes":[2.571416E1,8.503219E0,0E0,0E0,0E0],"parents":[2147483647,0,0,1,1],"right_children":[2,4,-1,-1,-1],"split_conditions":[5.8672833E0,-3.893339E0,1.2417725E-2,-7.129738E-3,4.5383858E-4],"split_indices":[5,0,0,0,0],"split_type":[0,0,0,0,0],"sum_hessian":[7.32E2,7.19E2,1.3E1,1E1,7.09E2],"tree_param":{"num_deleted":"0","num_feature":"8","num_nodes":"5","size_leaf_vector":"1"}},{"base_weights":[1.7760715E-2,-7.3986743E-3,3.8309447E-2,3.2373527E-3,4.3902495E-5],"categories":[],"categories_nodes":[],"categories_segments":[],"categories_sizes":[],"default_left":[0,0,0,0,0],"id":111,"left_children":[1,-1,3,-1,-1],"loss_changes":[1.0664906E1,0E0,6.51921E0,0E0,0E0],"parents":[2147483647,0,0,2,2],"right_children":[2,-1,4,-1,-1],"split_conditions":[-7.647059E0,-7.3986743E-3,-6.454676E0,3.2373527E-3,4.3902495E-5],"split_indices":[1,0,3,0,0],"split_type":[0,0,0,0,0],"sum_hessian":[7.16E2,1.3E1,7.03E2,6.7E1,6.36E2],"tree_param":{"num_deleted":"0","num_feature":"8","num_nodes":"5","size_leaf_vector":"1"}},{"base_weights":[-3.559999E-2,6.0265068E-2,-2.2569841E-1,-4.903721E-4,3.7067716E-3,-3.3559396E-3,7.0907804E-3],"categories":[],"categories_nodes":[],"categories_segments":[],"categories_sizes":[],"default_left":[0,0,0,0,0,0,0],"id":112,"left_children":[1,3,5,-1,-1,-1,-1],"loss_changes":[1.4119974E1,1.7614405E1,2.7525555E1,0E0,0E0,0E0,0E0],"parents":[2147483647,0,0,1,1,2,2],"right_children":[2,4,6,-1,-1,-1,-1],"split_conditions":[2.8154292E0,1.0912145E0,2.5733075E0,-4.903721E-4,3.7067716E-3,-3.3559396E-3,7.0907804E-3],"split_indices":[2,2,0,0,0,0,0],"split_type":[0,0,0,0,0,0,0],"sum_hessian":[7.57E2,5.02E2,2.55E2,3.72E2,1.3E2,2.32E2,2.3E1],"tree_param":{"num_deleted":"0","num_feature":"8","num_nodes":"7","size_leaf_vector":"1"}},{"base_weights":[-2.0445397E-3,7.105125E-2,-2.1653868E-1,-9.1918494E-4,2.5736499E-3,-3.5552655E-3,3.2410668E-3],"categories":[],"categories_nodes":[],"categories_segments":[],"categories_sizes":[],"default_left":[0,0,0,0,0,0,0],"id":113,"left_children":[1,3,5,-1,-1,-1,-1],"loss_changes":[1.1652128E1,1.6801472E1,1.488476E1,0E0,0E0,0E0,0E0],"parents":[2147483647,0,0,1,1,2,2],"right_children":[2,4,6,-1,-1,-1,-1],"split_conditions":[6.702095E1,4.9653503E1,8.274013E1,-9.1918494E-4,2.5736499E-3,-3.5552655E-3,3.2410668E-3],"split_indices":[7,7,7,0,0,0,0],"split_type":[0,0,0,0,0,0,0],"sum_hessian":[7.24E2,5.39E2,1.85E2,2.86E2,2.53E2,1.5E2,3.5E1],"tree_param":{"num_deleted":"0","num_feature":"8","num_nodes":"7","size_leaf_vector":"1"}},{"base_weights":[7.337761E-3,-1.4312123E-2,3.8344037E-2,1.7361447E-3,-1.5594821E-3],"categories":[],"categories_nodes":[],"categories_segments":[],"categories_sizes":[],"default_left":[0,0,0,0,0],"id":114,"left_children":[1,-1,3,-1,-1],"loss_changes":[3.175473E1,0E0,1.9260054E1,0E0,0E0],"parents":[2147483647,0,0,2,2],"right_children":[2,-1,4,-1,-1],"split_conditions":[-7.647059E0,-1.4312123E-2,6.0392605E1,1.7361447E-3,-1.5594821E-3],"split_indices":[1,0,7,0,0],"split_type":[0,0,0,0,0],"sum_hessian":[7.32E2,1E1,7.22E2,4.29E2,2.93E2],"tree_param":{"num_deleted":"0","num_feature":"8","num_nodes":"5","size_leaf_vector":"1"}},{"base_weights":[-1.1795536E-2,-8.6069904E-2,2.4506865E-1,6.385919E-3,-1.1477454E-3,-9.0088864E-4,6.070712E-3],"categories":[],"categories_nodes":[],"categories_segments":[],"categories_sizes":[],"default_left":[0,0,0,0,0,0,0],"id":115,"left_children":[1,3,5,-1,-1,-1,-1],"loss_changes":[1.3702012E1,1.1616106E1,2.0202896E1,0E0,0E0,0E0,0E0],"parents":[2147483647,0,0,1,1,2,2],"right_children":[2,4,6,-1,-1,-1,-1],"split_conditions":[4E0,2.4524826E1,2.558106E0,6.385919E-3,-1.1477454E-3,-9.0088864E-4,6.070712E-3],"split_indices":[6,7,3,0,0,0,0],"split_type":[0,0,0,0,0,0,0],"sum_hessian":[7.16E2,5.61E2,1.55E2,1.6E1,5.45E2,8.1E1,7.4E1],"tree_param":{"num_deleted":"0","num_feature":"8","num_nodes":"7","size_leaf_vector":"1"}},{"base_weights":[-2.5057562E-2,2.2612792E-2,-3.7875506E-1,3.8807604E-3,-4.536936E-5,-9.028167E-3,-4.7807355E-4],"categories":[],"categories_nodes":[],"categories_segments":[],"categories_sizes":[],"default_left":[0,0,0,0,0,0,0],"id":116,"left_children":[1,3,5,-1,-1,-1,-1],"loss_changes":[1.2639969E1,6.762412E0,1.4269464E1,0E0,0E0,0E0,0E0],"parents":[2147483647,0,0,1,1,2,2],"right_children":[2,4,6,-1,-1,-1,-1],"split_conditions":[7.599705E1,2.80386E1,7.886765E1,3.8807604E-3,-4.536936E-5,-9.028167E-3,-4.7807355E-4],"split_indices":[7,7,7,0,0,0,0],"split_type":[0,0,0,0,0,0,0],"sum_hessian":[7.21E2,6.37E2,8.4E1,4.2E1,5.95E2,2.8E1,5.6E1],"tree_param":{"num_deleted":"0","num_feature":"8","num_nodes":"7","size_leaf_vector":"1"}},{"base_weights":[1.8986579E-2,-4.8335876E-2,2.0144776E-1,1.4716905E-4,-7.666259E-3,-2.1020493E-3,3.1725874E-3],"categories":[],"categories_nodes":[],"categories_segments":[],"categories_sizes":[],"default_left":[0,0,0,0,0,0,0],"id":117,"left_children":[1,3,5,-1,-1,-1,-1],"loss_changes":[9.500585E0,2.5853794E1,1.0404348E1,0E0,0E0,0E0,0E0],"parents":[2147483647,0,0,1,1,2,2],"right_children":[2,4,6,-1,-1,-1,-1],"split_conditions":[2.3602145E0,2.2066648E0,-3.4062557E0,1.4716905E-4,-7.666259E-3,-2.1020493E-3,3.1725874E-3],"split_indices":[5,5,1,0,0,0,0],"split_type":[0,0,0,0,0,0,0],"sum_hessian":[7.52E2,5.48E2,2.04E2,5.07E2,4.1E1,4.2E1,1.62E2],"tree_param":{"num_deleted":"0","num_feature":"8","num_nodes":"7","size_leaf_vector":"1"}},{"base_weights":[-1.5538218E-2,-9.402384E-2,2.5708896E-1,-1.2203043E-3,9.180976E-3,1.2635511E-3,7.7356766E-3],"categories":[],"categories_nodes":[],"categories_segments":[],"categories_sizes":[],"default_left":[0,0,0,0,0,0,0],"id":118,"left_children":[1,3,5,-1,-1,-1,-1],"loss_changes":[1.5513643E1,1.5949724E1,9.482281E0,0E0,0E0,0E0,0E0],"parents":[2147483647,0,0,1,1,2,2],"right_children":[2,4,6,-1,-1,-1,-1],"split_conditions":[2.5606086E0,3.761766E0,7.869373E0,-1.2203043E-3,9.180976E-3,1.2635511E-3,7.7356766E-3],"split_indices":[5,4,3,0,0,0,0],"split_type":[0,0,0,0,0,0,0],"sum_hessian":[7.22E2,5.66E2,1.56E2,5.56E2,1E1,1.31E2,2.5E1],"tree_param":{"num_deleted":"0","num_feature":"8","num_nodes":"7","size_leaf_vector":"1"}},{"base_weights":[-1.5264621E-2,6.6702443E-1,-4.05535E-2,1.7964344E-2,-5.3774253E-3,-1.2792601E-3,7.563129E-4],"categories":[],"categories_nodes":[],"categories_segments":[],"categories_sizes":[],"default_left":[0,0,0,0,0,0,0],"id":119,"left_children":[1,3,5,-1,-1,-1,-1],"loss_changes":[1.2604815E1,4.1466362E1,7.5923743E0,0E0,0E0,0E0,0E0],"parents":[2147483647,0,0,1,1,2,2],"right_children":[2,4,6,-1,-1,-1,-1],"split_conditions":[-7.100804E0,2E0,1.495937E0,1.7964344E-2,-5.3774253E-3,-1.2792601E-3,7.563129E-4],"split_indices":[1,6,4,0,0,0,0],"split_type":[0,0,0,0,0,0,0],"sum_hessian":[7.54E2,2.1E1,7.33E2,1E1,1.1E1,4.23E2,3.1E2],"tree_param":{"num_deleted":"0","num_feature":"8","num_nodes":"7","size_leaf_vector":"1"}},{"base_weights":[1.671011E-2,-1.3480533E-2,1.2618316E-2,-6.7285565E-4,3.7560395E-3],"categories":[],"categories_nodes":[],"categories_segments":[],"categories_sizes":[],"default_left":[0,0,0,0,0],"id":120,"left_children":[1,3,-1,-1,-1],"loss_changes":[2.8586891E1,1.4723556E1,0E0,0E0,0E0],"parents":[2147483647,0,0,1,1],"right_children":[2,4,-1,-1,-1],"split_conditions":[5.8672833E0,1.769871E0,1.2618316E-2,-6.7285565E-4,3.7560395E-3],"split_indices":[5,0,0,0,0],"split_type":[0,0,0,0,0],"sum_hessian":[7.2E2,7.07E2,1.3E1,6.27E2,8E1],"tree_param":{"num_deleted":"0","num_feature":"8","num_nodes":"5","size_leaf_vector":"1"}},{"base_weights":[-3.3678602E-2,-1.2210945E-1,2.0287207E-1,-2.2124479E-4,-5.288722E-3,-1.6803069E-3,2.8571764E-3],"categories":[],"categories_nodes":[],"categories_segments":[],"categories_sizes":[],"default_left":[0,0,0,0,0,0,0],"id":121,"left_children":[1,3,5,-1,-1,-1,-1],"loss_changes":[1.4895148E1,2.066099E1,6.257443E0,0E0,0E0,0E0,0E0],"parents":[2147483647,0,0,1,1,2,2],"right_children":[2,4,6,-1,-1,-1,-1],"split_conditions":[2.3892748E0,1.9790072E0,1E0,-2.2124479E-4,-5.288722E-3,-1.6803069E-3,2.8571764E-3],"split_indices":[5,5,6,0,0,0,0],"split_type":[0,0,0,0,0,0,0],"sum_hessian":[7.05E2,5.18E2,1.87E2,4.22E2,9.6E1,3.1E1,1.56E2],"tree_param":{"num_deleted":"0","num_feature":"8","num_nodes":"7","size_leaf_vector":"1"}},{"base_weights":[9.76199E-3,-1.05220275E-2,1.0468075E-2,-1.0542122E-3,1.0863091E-3],"categories":[],"categories_nodes":[],"categories_segments":[],"categories_sizes":[],"default_left":[0,0,0,0,0],"id":122,"left_children":[1,3,-1,-1,-1],"loss_changes":[1.6447237E1,8.195462E0,0E0,0E0,0E0],"parents":[2147483647,0,0,1,1],"right_children":[2,4,-1,-1,-1],"split_conditions":[5.5066504E0,1.495937E0,1.0468075E-2,-1.0542122E-3,1.0863091E-3],"split_indices":[5,4,0,0,0],"split_type":[0,0,0,0,0],"sum_hessian":[7.25E2,7.15E2,1E1,4.03E2,3.12E2],"tree_param":{"num_deleted":"0","num_feature":"8","num_nodes":"5","size_leaf_vector":"1"}},{"base_weights":[7.323668E-2,-1.5945758E-3,2.8925085E-1,7.668E-4,-6.891388E-3,-8.3419E-4,5.9794295E-3],"categories":[],"categories_nodes":[],"categories_segments":[],"categories_sizes":[],"default_left":[0,0,0,0,0,0,0],"id":123,"left_children":[1,3,5,-1,-1,-1,-1],"loss_changes":[1.2009306E1,2.993798E1,2.2621569E1,0E0,0E0,0E0,0E0],"parents":[2147483647,0,0,1,1,2,2],"right_children":[2,4,6,-1,-1,-1,-1],"split_conditions":[2.3892748E0,2.1713474E0,-8.847576E-1,7.668E-4,-6.891388E-3,-8.3419E-4,5.9794295E-3],"split_indices":[5,5,1,0,0,0,0],"split_type":[0,0,0,0,0,0,0],"sum_hessian":[7.2E2,5.35E2,1.85E2,4.83E2,5.2E1,8.4E1,1.01E2],"tree_param":{"num_deleted":"0","num_feature":"8","num_nodes":"7","size_leaf_vector":"1"}},{"base_weights":[6.452993E-2,-3.0222626E-2,3.1291634E-1,2.1920096E-4,-6.5628295E-3,4.488444E-3,-3.5220045E-3],"categories":[],"categories_nodes":[],"categories_segments":[],"categories_sizes":[],"default_left":[0,0,0,0,0,0,0],"id":124,"left_children":[1,3,5,-1,-1,-1,-1],"loss_changes":[1.7345964E1,1.784465E1,1.9239887E1,0E0,0E0,0E0,0E0],"parents":[2147483647,0,0,1,1,2,2],"right_children":[2,4,6,-1,-1,-1,-1],"split_conditions":[2.3602145E0,2.2066648E0,7.0042305E1,2.1920096E-4,-6.5628295E-3,4.488444E-3,-3.5220045E-3],"split_indices":[5,5,7,0,0,0,0],"split_type":[0,0,0,0,0,0,0],"sum_hessian":[7.18E2,5.2E2,1.98E2,4.83E2,3.7E1,1.67E2,3.1E1],"tree_param":{"num_deleted":"0","num_feature":"8","num_nodes":"7","size_leaf_vector":"1"}},{"base_weights":[3.9690852E-2,8.991511E-1,-0E0,1.8490238E-2,1.7034894E-5,3.619174E-4,-1.456354E-2],"categories":[],"categories_nodes":[],"categories_segments":[],"categories_sizes":[],"default_left":[0,0,0,0,0,0,0],"id":125,"left_children":[1,3,5,-1,-1,-1,-1],"loss_changes":[2.4699055E1,2.541228E1,3.6979877E1,0E0,0E0,0E0,0E0],"parents":[2147483647,0,0,1,1,2,2],"right_children":[2,4,6,-1,-1,-1,-1],"split_conditions":[2.5821365E1,-8.640816E0,5.5066504E0,1.8490238E-2,1.7034894E-5,3.619174E-4,-1.456354E-2],"split_indices":[7,2,5,0,0,0,0],"split_type":[0,0,0,0,0,0,0],"sum_hessian":[7.39E2,2.7E1,7.12E2,1E1,1.7E1,7E2,1.2E1],"tree_param":{"num_deleted":"0","num_feature":"8","num_nodes":"7","size_leaf_vector":"1"}},{"base_weights":[-1.90847E-2,-1.1485671E-1,1.22989364E-1,2.7139037E-4,-4.3711467E-3,-0E0,6.0169697E-3],"categories":[],"categories_nodes":[],"categories_segments":[],"categories_sizes":[],"default_left":[0,0,0,0,0,0,0],"id":126,"left_children":[1,3,5,-1,-1,-1,-1],"loss_changes":[1.0226718E1,2.119823E1,1.7923645E1,0E0,0E0,0E0,0E0],"parents":[2147483647,0,0,1,1,2,2],"right_children":[2,4,6,-1,-1,-1,-1],"split_conditions":[1.5497133E0,1.2503711E0,7.2330284E0,2.7139037E-4,-4.3711467E-3,-0E0,6.0169697E-3],"split_indices":[4,4,2,0,0,0,0],"split_type":[0,0,0,0,0,0,0],"sum_hessian":[7.42E2,4.48E2,2.94E2,3.12E2,1.36E2,2.37E2,5.7E1],"tree_param":{"num_deleted":"0","num_feature":"8","num_nodes":"7","size_leaf_vector":"1"}},{"base_weights":[2.4030395E-2,-6.800828E-3,4.7250733E-2,-1.3392553E-4,2.7874399E-3],"categories":[],"categories_nodes":[],"categories_segments":[],"categories_sizes":[],"default_left":[0,0,0,0,0],"id":127,"left_children":[1,-1,3,-1,-1],"loss_changes":[1.13323555E1,0E0,1.0181168E1,0E0,0E0],"parents":[2147483647,0,0,2,2],"right_children":[2,-1,4,-1,-1],"split_conditions":[-3.5922651E0,-6.800828E-3,4E0,-1.3392553E-4,2.7874399E-3],"split_indices":[0,0,6,0,0],"split_type":[0,0,0,0,0],"sum_hessian":[7.17E2,1.7E1,7E2,5.55E2,1.45E2],"tree_param":{"num_deleted":"0","num_feature":"8","num_nodes":"5","size_leaf_vector":"1"}},{"base_weights":[1.3174323E-2,5.785479E-1,-1.958884E-2,1.7371936E-2,-3.8551583E-3,4.4457804E-5,-8.62641E-3],"categories":[],"categories_nodes":[],"categories_segments":[],"categories_sizes":[],"default_left":[0,0,0,0,0,0,0],"id":128,"left_children":[1,3,5,-1,-1,-1,-1],"loss_changes":[1.3859874E1,5.04976E1,1.4635567E1,0E0,0E0,0E0,0E0],"parents":[2147483647,0,0,1,1,2,2],"right_children":[2,4,6,-1,-1,-1,-1],"split_conditions":[-5.2209754E0,2E0,4.3821616E0,1.7371936E-2,-3.8551583E-3,4.4457804E-5,-8.62641E-3],"split_indices":[1,6,5,0,0,0,0],"split_type":[0,0,0,0,0,0,0],"sum_hessian":[7.1E2,3.6E1,6.74E2,1.5E1,2.1E1,6.59E2,1.5E1],"tree_param":{"num_deleted":"0","num_feature":"8","num_nodes":"7","size_leaf_vector":"1"}},{"base_weights":[4.401702E-2,-3.717376E-2,2.7807003E-1,2.8249327E-4,-3.069354E-3,3.7354778E-3,-3.6122107E-3],"categories":[],"categories_nodes":[],"categories_segments":[],"categories_sizes":[],"default_left":[0,0,0,0,0,0,0],"id":129,"left_children":[1,3,5,-1,-1,-1,-1],"loss_changes":[1.4107723E1,9.869954E0,1.2345266E1,0E0,0E0,0E0,0E0],"parents":[2147483647,0,0,1,1,2,2],"right_children":[2,4,6,-1,-1,-1,-1],"split_conditions":[2.3892748E0,1.9790072E0,2.7941208E0,2.8249327E-4,-3.069354E-3,3.7354778E-3,-3.6122107E-3],"split_indices":[5,5,0,0,0,0,0],"split_type":[0,0,0,0,0,0,0],"sum_hessian":[7.22E2,5.36E2,1.86E2,4.32E2,1.04E2,1.65E2,2.1E1],"tree_param":{"num_deleted":"0","num_feature":"8","num_nodes":"7","size_leaf_vector":"1"}},{"base_weights":[-6.4423443E-3,-6.78085E-2,4.3755555E-1,3.052713E-4,-2.8892672E-3,6.935652E-3,-5.306675E-3],"categories":[],"categories_nodes":[],"categories_segments":[],"categories_sizes":[],"default_left":[0,0,0,0,0,0,0],"id":130,"left_children":[1,3,5,-1,-1,-1,-1],"loss_changes":[1.9368797E1,1.4175043E1,2.3320362E1,0E0,0E0,0E0,0E0],"parents":[2147483647,0,0,1,1,2,2],"right_children":[2,4,6,-1,-1,-1,-1],"split_conditions":[1.769871E0,3.1179867E0,3.7764683E0,3.052713E-4,-2.8892672E-3,6.935652E-3,-5.306675E-3],"split_indices":[0,2,5,0,0,0,0],"split_type":[0,0,0,0,0,0,0],"sum_hessian":[7.14E2,6.33E2,8.1E1,4.38E2,1.95E2,6.6E1,1.5E1],"tree_param":{"num_deleted":"0","num_feature":"8","num_nodes":"7","size_leaf_vector":"1"}},{"base_weights":[6.2024808E-3,-4.903541E-2,2.8219432E-1,-4.774881E-3,1.13531656E-4,-2.6022156E-3,4.5708185E-3],"categories":[],"categories_nodes":[],"categories_segments":[],"categories_sizes":[],"default_left":[0,0,0,0,0,0,0],"id":131,"left_children":[1,3,5,-1,-1,-1,-1],"loss_changes":[1.1660027E1,1.6586649E1,1.2933882E1,0E0,0E0,0E0,0E0],"parents":[2147483647,0,0,1,1,2,2],"right_children":[2,4,6,-1,-1,-1,-1],"split_conditions":[2.0997357E0,-1.415247E0,1.6175764E0,-4.774881E-3,1.13531656E-4,-2.6022156E-3,4.5708185E-3],"split_indices":[4,0,5,0,0,0,0],"split_type":[0,0,0,0,0,0,0],"sum_hessian":[7.4E2,6.17E2,1.23E2,7.4E1,5.43E2,2.8E1,9.5E1],"tree_param":{"num_deleted":"0","num_feature":"8","num_nodes":"7","size_leaf_vector":"1"}},{"base_weights":[5.7496987E-2,1.9415531E-2,1.3412298E-2,-6.1515847E-4,4.5973505E-3],"categories":[],"categories_nodes":[],"categories_segments":[],"categories_sizes":[],"default_left":[0,0,0,0,0],"id":132,"left_children":[1,-1,3,-1,-1],"loss_changes":[5.8048843E1,0E0,2.4383867E1,0E0,0E0],"parents":[2147483647,0,0,2,2],"right_children":[2,-1,4,-1,-1],"split_conditions":[-7.100804E0,1.9415531E-2,1.6101152E0,-6.1515847E-4,4.5973505E-3],"split_indices":[1,0,0,0,0],"split_type":[0,0,0,0,0],"sum_hessian":[7.19E2,1.1E1,7.08E2,6.08E2,1E2],"tree_param":{"num_deleted":"0","num_feature":"8","num_nodes":"5","size_leaf_vector":"1"}},{"base_weights":[-4.9832825E-2,-1.4582396E-2,-7.8410274E-1,-4.976261E-4,8.712114E-3,-1.485654E-2,4.3954006E-3],"categories":[],"categories_nodes":[],"categories_segments":[],"categories_sizes":[],"default_left":[0,0,0,0,0,0,0],"id":133,"left_children":[1,3,5,-1,-1,-1,-1],"loss_changes":[1.801309E1,2.1271338E1,3.1781477E1,0E0,0E0,0E0,0E0],"parents":[2147483647,0,0,1,1,2,2],"right_children":[2,4,6,-1,-1,-1,-1],"split_conditions":[3.13075E0,3.1248286E0,2.975795E-1,-4.976261E-4,8.712114E-3,-1.485654E-2,4.3954006E-3],"split_indices":[4,0,2,0,0,0,0],"split_type":[0,0,0,0,0,0,0],"sum_hessian":[7.24E2,6.97E2,2.7E1,6.76E2,2.1E1,1.7E1,1E1],"tree_param":{"num_deleted":"0","num_feature":"8","num_nodes":"7","size_leaf_vector":"1"}},{"base_weights":[4.446865E-2,5.3831303E-1,1.108846E-3,2.0576285E-2,-0E0,-1.2306599E-2,3.0790232E-4],"categories":[],"categories_nodes":[],"categories_segments":[],"categories_sizes":[],"default_left":[0,0,0,0,0,0,0],"id":134,"left_children":[1,3,5,-1,-1,-1,-1],"loss_changes":[1.4810711E1,4.7279808E1,2.3338957E1,0E0,0E0,0E0,0E0],"parents":[2147483647,0,0,1,1,2,2],"right_children":[2,4,6,-1,-1,-1,-1],"split_conditions":[2.838755E1,-6.7685046E0,-7.100804E0,2.0576285E-2,-0E0,-1.2306599E-2,3.0790232E-4],"split_indices":[7,1,1,0,0,0,0],"split_type":[0,0,0,0,0,0,0],"sum_hessian":[7.12E2,5.1E1,6.61E2,1E1,4.1E1,1E1,6.51E2],"tree_param":{"num_deleted":"0","num_feature":"8","num_nodes":"7","size_leaf_vector":"1"}},{"base_weights":[1.9307539E-2,8.247548E-1,-1.7636774E-2,1.7354138E-2,8.073869E-5,-9.308724E-3,2.3923982E-5],"categories":[],"categories_nodes":[],"categories_segments":[],"categories_sizes":[],"default_left":[0,0,0,0,0,0,0],"id":135,"left_children":[1,3,5,-1,-1,-1,-1],"loss_changes":[2.2393942E1,2.2729145E1,1.3652105E1,0E0,0E0,0E0,0E0],"parents":[2147483647,0,0,1,1,2,2],"right_children":[2,4,6,-1,-1,-1,-1],"split_conditions":[2.5821365E1,-8.728823E0,-1.1304866E1,1.7354138E-2,8.073869E-5,-9.308724E-3,2.3923982E-5],"split_indices":[7,2,3,0,0,0,0],"split_type":[0,0,0,0,0,0,0],"sum_hessian":[7.18E2,2.8E1,6.9E2,1E1,1.8E1,1.1E1,6.79E2],"tree_param":{"num_deleted":"0","num_feature":"8","num_nodes":"7","size_leaf_vector":"1"}},{"base_weights":[2.5735205E-2,8.420015E-2,-1.709216E-1,3.1659528E-4,4.565184E-3,-1.0841622E-2,4.425609E-5],"categories":[],"categories_nodes":[],"categories_segments":[],"categories_sizes":[],"default_left":[0,0,0,0,0,0,0],"id":136,"left_children":[1,3,5,-1,-1,-1,-1],"loss_changes":[8.527901E0,1.0785419E1,2.800627E1,0E0,0E0,0E0,0E0],"parents":[2147483647,0,0,1,1,2,2],"right_children":[2,4,6,-1,-1,-1,-1],"split_conditions":[7.235802E0,1.769871E0,8.110266E0,3.1659528E-4,4.565184E-3,-1.0841622E-2,4.425609E-5],"split_indices":[3,0,3,0,0,0,0],"split_type":[0,0,0,0,0,0,0],"sum_hessian":[7.38E2,5.75E2,1.63E2,5.11E2,6.4E1,2.3E1,1.4E2],"tree_param":{"num_deleted":"0","num_feature":"8","num_nodes":"7","size_leaf_vector":"1"}},{"base_weights":[1.3503313E-2,1.0971285E0,-3.511848E-2,1.5085724E-2,3.025131E-3,-5.1263858E-5,-6.8750153E-3],"categories":[],"categories_nodes":[],"categories_segments":[],"categories_sizes":[],"default_left":[0,0,0,0,0,0,0],"id":137,"left_children":[1,3,5,-1,-1,-1,-1],"loss_changes":[3.924256E1,6.3691673E0,1.2868786E1,0E0,0E0,0E0,0E0],"parents":[2147483647,0,0,1,1,2,2],"right_children":[2,4,6,-1,-1,-1,-1],"split_conditions":[2.5821365E1,-6.7866117E-1,3.216461E0,1.5085724E-2,3.025131E-3,-5.1263858E-5,-6.8750153E-3],"split_indices":[7,0,4,0,0,0,0],"split_type":[0,0,0,0,0,0,0],"sum_hessian":[7.16E2,2.7E1,6.89E2,1.4E1,1.3E1,6.65E2,2.4E1],"tree_param":{"num_deleted":"0","num_feature":"8","num_nodes":"7","size_leaf_vector":"1"}},{"base_weights":[-0E0,2.9077247E-1,-3.1268105E-2,1.4682801E-2,-1.1168824E-4,-6.0242177E-3,1.6581459E-4],"categories":[],"categories_nodes":[],"categories_segments":[],"categories_sizes":[],"default_left":[0,0,0,0,0,0,0],"id":138,"left_children":[1,3,5,-1,-1,-1,-1],"loss_changes":[6.5666156E0,2.642678E1,1.8755213E1,0E0,0E0,0E0,0E0],"parents":[2147483647,0,0,1,1,2,2],"right_children":[2,4,6,-1,-1,-1,-1],"split_conditions":[3.065493E1,-6.7685046E0,3.714101E1,1.4682801E-2,-1.1168824E-4,-6.0242177E-3,1.6581459E-4],"split_indices":[7,1,7,0,0,0,0],"split_type":[0,0,0,0,0,0,0],"sum_hessian":[7.23E2,6.5E1,6.58E2,1E1,5.5E1,4.8E1,6.1E2],"tree_param":{"num_deleted":"0","num_feature":"8","num_nodes":"7","size_leaf_vector":"1"}},{"base_weights":[-7.8861654E-2,-1.1421338E-2,-5.2936774E-2,-7.839182E-4,4.849966E-3],"categories":[],"categories_nodes":[],"categories_segments":[],"categories_sizes":[],"default_left":[0,0,0,0,0],"id":139,"left_children":[1,-1,3,-1,-1],"loss_changes":[1.8377136E1,0E0,9.505609E0,0E0,0E0],"parents":[2147483647,0,0,2,2],"right_children":[2,-1,4,-1,-1],"split_conditions":[-7.420777E0,-1.1421338E-2,3.1248286E0,-7.839182E-4,4.849966E-3],"split_indices":[1,0,0,0,0],"split_type":[0,0,0,0,0],"sum_hessian":[7.16E2,1.1E1,7.05E2,6.79E2,2.6E1],"tree_param":{"num_deleted":"0","num_feature":"8","num_nodes":"5","size_leaf_vector":"1"}},{"base_weights":[-1.646407E-2,7.208017E-3,-4.185569E-2,-3.2489502E-3,2.3668306E-4],"categories":[],"categories_nodes":[],"categories_segments":[],"categories_sizes":[],"default_left":[0,0,0,0,0],"id":140,"left_children":[1,-1,3,-1,-1],"loss_changes":[1.35496235E1,0E0,1.3933798E1,0E0,0E0],"parents":[2147483647,0,0,2,2],"right_children":[2,-1,4,-1,-1],"split_conditions":[-7.100804E0,7.208017E-3,-3.6991835E0,-3.2489502E-3,2.3668306E-4],"split_indices":[1,0,3,0,0],"split_type":[0,0,0,0,0],"sum_hessian":[7.47E2,1.9E1,7.28E2,1.36E2,5.92E2],"tree_param":{"num_deleted":"0","num_feature":"8","num_nodes":"5","size_leaf_vector":"1"}},{"base_weights":[1.081769E-2,1.1607796E-1,-2.1526928E-1,2.1417134E-3,-9.65949E-4,-2.8765558E-3,7.8028985E-3],"categories":[],"categories_nodes":[],"categories_segments":[],"categories_sizes":[],"default_left":[0,0,0,0,0,0,0],"id":141,"left_children":[1,3,5,-1,-1,-1,-1],"loss_changes":[1.7350676E1,1.0714501E1,1.7204552E1,0E0,0E0,0E0,0E0],"parents":[2147483647,0,0,1,1,2,2],"right_children":[2,4,6,-1,-1,-1,-1],"split_conditions":[3.1179867E0,5.291587E-1,3.1248286E0,2.1417134E-3,-9.65949E-4,-2.8765558E-3,7.8028985E-3],"split_indices":[2,0,0,0,0,0,0],"split_type":[0,0,0,0,0,0,0],"sum_hessian":[7.23E2,4.98E2,2.25E2,3.44E2,1.54E2,2.14E2,1.1E1],"tree_param":{"num_deleted":"0","num_feature":"8","num_nodes":"7","size_leaf_vector":"1"}},{"base_weights":[6.028766E-2,3.290841E-2,1.0091463E-2,-1.508146E-3,1.0395772E-3],"categories":[],"categories_nodes":[],"categories_segments":[],"categories_sizes":[],"default_left":[0,0,0,0,0],"id":142,"left_children":[1,3,-1,-1,-1],"loss_changes":[1.7496807E1,9.247231E0,0E0,0E0,0E0],